{"learner":{"attributes":{},"feature_names":["pos_1","pos_2","pos_3","pos_4","is_home","is_pen_taker","is_fk_taker","lag1_min","lag2_min","lag3_min","opp_xg_5","opp_xga_5","opp_elo","own_elo","elo_gap","own_lambda_for","own_lambda_against","own_cs_p","roll5_xg","roll5_xa","roll5_xgi","roll5_bps","roll5_ict","roll5_saves","roll5_cbi","roll5_tkl","roll5_rec","roll5_oxg","roll5_oxa","roll5_occ","roll5_otob","roll5_osh","roll5_odrib","roll5_xg_share","roll5_xa_share","roll5_xgi_share","roll10_xg","roll10_xa","roll10_xgi","roll10_bps","roll10_ict","roll10_saves","roll10_cbi","roll10_tkl","roll10_rec","roll10_oxg","roll10_oxa","roll10_occ","roll10_otob","roll10_osh","roll10_odrib","roll10_xg_share","roll10_xa_share","roll10_xgi_share","own_rank","own_ppg","own_in_drop_zone","own_pts_to_title_norm","own_pts_to_top4_norm","own_pts_to_top6_norm","own_pts_to_safety_norm","opp_rank","opp_ppg","opp_in_drop_zone","opp_pts_to_title_norm","opp_pts_to_top4_norm","opp_pts_to_top6_norm","opp_pts_to_safety_norm","gws_remaining"],"feature_types":["float","float","float","float","float","float","float","float","float","float","float","float","float","float","float","float","float","float","float","float","float","float","float","float","float","float","float","float","float","float","float","float","float","float","float","float","float","float","float","float","float","float","float","float","float","float","float","float","float","float","float","float","float","float","float","float","float","float","float","float","float","float","float","float","float","float","float","float","float"],"gradient_booster":{"model":{"cats":{"enc":[],"feature_segments":[],"sorted_idx":[]},"gbtree_model_param":{"num_parallel_tree":"1","num_trees":"400"},"iteration_indptr":[0,1,2,3,4,5,6,7,8,9,10,11,12,13,14,15,16,17,18,19,20,21,22,23,24,25,26,27,28,29,30,31,32,33,34,35,36,37,38,39,40,41,42,43,44,45,46,47,48,49,50,51,52,53,54,55,56,57,58,59,60,61,62,63,64,65,66,67,68,69,70,71,72,73,74,75,76,77,78,79,80,81,82,83,84,85,86,87,88,89,90,91,92,93,94,95,96,97,98,99,100,101,102,103,104,105,106,107,108,109,110,111,112,113,114,115,116,117,118,119,120,121,122,123,124,125,126,127,128,129,130,131,132,133,134,135,136,137,138,139,140,141,142,143,144,145,146,147,148,149,150,151,152,153,154,155,156,157,158,159,160,161,162,163,164,165,166,167,168,169,170,171,172,173,174,175,176,177,178,179,180,181,182,183,184,185,186,187,188,189,190,191,192,193,194,195,196,197,198,199,200,201,202,203,204,205,206,207,208,209,210,211,212,213,214,215,216,217,218,219,220,221,222,223,224,225,226,227,228,229,230,231,232,233,234,235,236,237,238,239,240,241,242,243,244,245,246,247,248,249,250,251,252,253,254,255,256,257,258,259,260,261,262,263,264,265,266,267,268,269,270,271,272,273,274,275,276,277,278,279,280,281,282,283,284,285,286,287,288,289,290,291,292,293,294,295,296,297,298,299,300,301,302,303,304,305,306,307,308,309,310,311,312,313,314,315,316,317,318,319,320,321,322,323,324,325,326,327,328,329,330,331,332,333,334,335,336,337,338,339,340,341,342,343,344,345,346,347,348,349,350,351,352,353,354,355,356,357,358,359,360,361,362,363,364,365,366,367,368,369,370,371,372,373,374,375,376,377,378,379,380,381,382,383,384,385,386,387,388,389,390,391,392,393,394,395,396,397,398,399,400],"tree_info":[0,0,0,0,0,0,0,0,0,0,0,0,0,0,0,0,0,0,0,0,0,0,0,0,0,0,0,0,0,0,0,0,0,0,0,0,0,0,0,0,0,0,0,0,0,0,0,0,0,0,0,0,0,0,0,0,0,0,0,0,0,0,0,0,0,0,0,0,0,0,0,0,0,0,0,0,0,0,0,0,0,0,0,0,0,0,0,0,0,0,0,0,0,0,0,0,0,0,0,0,0,0,0,0,0,0,0,0,0,0,0,0,0,0,0,0,0,0,0,0,0,0,0,0,0,0,0,0,0,0,0,0,0,0,0,0,0,0,0,0,0,0,0,0,0,0,0,0,0,0,0,0,0,0,0,0,0,0,0,0,0,0,0,0,0,0,0,0,0,0,0,0,0,0,0,0,0,0,0,0,0,0,0,0,0,0,0,0,0,0,0,0,0,0,0,0,0,0,0,0,0,0,0,0,0,0,0,0,0,0,0,0,0,0,0,0,0,0,0,0,0,0,0,0,0,0,0,0,0,0,0,0,0,0,0,0,0,0,0,0,0,0,0,0,0,0,0,0,0,0,0,0,0,0,0,0,0,0,0,0,0,0,0,0,0,0,0,0,0,0,0,0,0,0,0,0,0,0,0,0,0,0,0,0,0,0,0,0,0,0,0,0,0,0,0,0,0,0,0,0,0,0,0,0,0,0,0,0,0,0,0,0,0,0,0,0,0,0,0,0,0,0,0,0,0,0,0,0,0,0,0,0,0,0,0,0,0,0,0,0,0,0,0,0,0,0,0,0,0,0,0,0,0,0,0,0,0,0,0,0,0,0,0,0,0,0,0,0,0,0,0,0,0,0,0,0,0,0,0,0,0,0,0,0,0,0,0,0,0,0,0,0,0,0,0,0,0,0,0,0],"trees":[{"base_weights":[-3.89187E-1,-4.1909206E-1,-3.093249E-1,-3.6420846E-1,-4.5121136E-1,-3.630823E-1,-2.509372E-1,-1.2231297E-2,-1.0926253E-2,-1.3048701E-2,-1.4311251E-2,-9.210292E-3,-1.0926253E-2,-8.0775E-3,5.514706E-4],"categories":[],"categories_nodes":[],"categories_segments":[],"categories_sizes":[],"default_left":[0,0,0,0,0,0,0,0,0,0,0,0,0,0,0],"id":0,"left_children":[1,3,5,7,9,11,13,-1,-1,-1,-1,-1,-1,-1,-1],"loss_changes":[3.843457E1,2.0819824E1,1.3717072E1,4.2925415E0,2.7264404E0,4.7144165E0,1.0696884E1,0E0,0E0,0E0,0E0,0E0,0E0,0E0,0E0],"parents":[2147483647,0,0,1,1,2,2,3,3,4,4,5,5,6,6],"right_children":[2,4,6,8,10,12,14,-1,-1,-1,-1,-1,-1,-1,-1],"split_conditions":[3.5571322E0,1.0814334E0,1.299122E0,1.3423562E0,1E0,5.200398E-1,2.4123058E-1,0E0,0E0,0E0,0E0,0E0,0E0,0E0,3E-2],"split_indices":[40,16,15,44,1,16,53,0,0,0,0,0,0,0,0],"split_type":[0,0,0,0,0,0,0,0,0,0,0,0,0,0,0],"sum_hessian":[1.621E4,1.1783E4,4.427E3,4.314E3,7.469E3,2.295E3,2.132E3,1.799E3,2.515E3,4.618E3,2.851E3,3.84E2,1.911E3,1.998E3,1.34E2],"tree_param":{"num_deleted":"0","num_feature":"69","num_nodes":"15","size_leaf_vector":"1"}},{"base_weights":[-3.8876176E-1,-4.1566995E-1,-3.0071127E-1,-3.6158377E-1,-4.4731775E-1,-3.5134566E-1,-2.1514085E-1,-1.0745717E-2,-1.2133523E-2,-1.3776877E-2,-1.2159611E-2,-8.497297E-3,-1.0745717E-2,-8.254924E-3,-3.1594487E-3],"categories":[],"categories_nodes":[],"categories_segments":[],"categories_sizes":[],"default_left":[0,0,0,0,0,0,0,0,0,0,0,0,0,0,0],"id":1,"left_children":[1,3,5,7,9,11,13,-1,-1,-1,-1,-1,-1,-1,-1],"loss_changes":[3.802588E1,2.0846191E1,1.6278748E1,5.9379883E0,3.510498E0,4.4521484E0,9.277939E0,0E0,0E0,0E0,0E0,0E0,0E0,0E0,0E0],"parents":[2147483647,0,0,1,1,2,2,3,3,4,4,5,5,6,6],"right_children":[2,4,6,8,10,12,14,-1,-1,-1,-1,-1,-1,-1,-1],"split_conditions":[3.8857617E0,1.0814334E0,1.4964812E0,1E0,5.061984E-2,3.5365292E-1,1.364702E-1,0E0,0E0,0E0,0E0,0E0,0E0,0E0,0E0],"split_indices":[40,16,15,2,33,16,53,0,0,0,0,0,0,0,0],"split_type":[0,0,0,0,0,0,0,0,0,0,0,0,0,0,0],"sum_hessian":[1.6166E4,1.2372E4,3.794E3,4.582E3,7.79E3,2.376E3,1.418E3,2.616E3,1.966E3,6.044E3,1.746E3,2.93E2,2.083E3,9.12E2,5.06E2],"tree_param":{"num_deleted":"0","num_feature":"69","num_nodes":"15","size_leaf_vector":"1"}},{"base_weights":[-3.8888544E-1,-4.1968307E-1,-3.1151095E-1,-3.65597E-1,-4.5050108E-1,-3.5261256E-1,-2.312341E-1,-1.096791E-2,-1.2241472E-2,-1.3946918E-2,-1.2429577E-2,-8.7577E-3,-1.096791E-2,-7.888805E-3,-1.6049383E-3],"categories":[],"categories_nodes":[],"categories_segments":[],"categories_sizes":[],"default_left":[0,0,0,0,0,0,0,0,0,0,0,0,0,0,0],"id":2,"left_children":[1,3,5,7,9,11,13,-1,-1,-1,-1,-1,-1,-1,-1],"loss_changes":[3.8221924E1,1.9211182E1,1.5037933E1,4.591736E0,3.4499512E0,4.9654236E0,8.763168E0,0E0,0E0,0E0,0E0,0E0,0E0,0E0,0E0],"parents":[2147483647,0,0,1,1,2,2,3,3,4,4,5,5,6,6],"right_children":[2,4,6,8,10,12,14,-1,-1,-1,-1,-1,-1,-1,-1],"split_conditions":[3.478474E0,1.0745655E0,1.5756723E0,1E0,3.4134682E-2,7.014075E-1,1E0,0E0,0E0,0E0,0E0,0E0,0E0,0E0,0E0],"split_indices":[40,16,15,2,33,16,3,0,0,0,0,0,0,0,0],"split_type":[0,0,0,0,0,0,0,0,0,0,0,0,0,0,0],"sum_hessian":[1.6157E4,1.1546E4,4.611E3,4.164E3,7.382E3,3.041E3,1.57E3,2.441E3,1.723E3,5.254E3,2.128E3,5.65E2,2.476E3,1.329E3,2.41E2],"tree_param":{"num_deleted":"0","num_feature":"69","num_nodes":"15","size_leaf_vector":"1"}},{"base_weights":[-3.882828E-1,-4.157729E-1,-2.9882354E-1,-3.5841E-1,-4.4902387E-1,-3.535963E-1,-2.2757177E-1,-1.0718946E-2,-1.2111507E-2,-1.3805716E-2,-1.2185792E-2,-8.717521E-3,-1.0718946E-2,-8.717521E-3,-4.8793284E-3],"categories":[],"categories_nodes":[],"categories_segments":[],"categories_sizes":[],"default_left":[0,0,0,0,0,0,0,0,0,0,0,0,0,0,0],"id":3,"left_children":[1,3,5,7,9,11,13,-1,-1,-1,-1,-1,-1,-1,-1],"loss_changes":[3.961963E1,2.3319092E1,1.4758514E1,5.295044E0,3.3587646E0,4.4779663E0,8.7267E0,0E0,0E0,0E0,0E0,0E0,0E0,0E0,0E0],"parents":[2147483647,0,0,1,1,2,2,3,3,4,4,5,5,6,6],"right_children":[2,4,6,8,10,12,14,-1,-1,-1,-1,-1,-1,-1,-1],"split_conditions":[3.8857617E0,1.0814334E0,1.373877E0,1E0,6.340794E-2,1.59202E3,9.357193E-2,0E0,0E0,0E0,0E0,0E0,0E0,0E0,0E0],"split_indices":[40,16,15,2,36,12,33,0,0,0,0,0,0,0,0],"split_type":[0,0,0,0,0,0,0,0,0,0,0,0,0,0,0],"sum_hessian":[1.6222E4,1.2399E4,3.823E3,4.564E3,7.835E3,2.153E3,1.67E3,2.634E3,1.93E3,6.19E3,1.645E3,3.35E2,1.818E3,7.19E2,9.51E2],"tree_param":{"num_deleted":"0","num_feature":"69","num_nodes":"15","size_leaf_vector":"1"}},{"base_weights":[-3.8951832E-1,-4.1891542E-1,-3.143798E-1,-4.4696677E-1,-3.666476E-1,-3.666476E-1,-2.5337052E-1,-1.3800301E-2,-1.2204215E-2,-1.0999428E-2,-1.2204215E-2,-9.300272E-3,-1.0999428E-2,-8.093579E-3,-5.2083336E-4],"categories":[],"categories_nodes":[],"categories_segments":[],"categories_sizes":[],"default_left":[0,0,0,0,0,0,0,0,0,0,0,0,0,0,0],"id":4,"left_children":[1,3,5,7,9,11,13,-1,-1,-1,-1,-1,-1,-1,-1],"loss_changes":[3.539087E1,1.8371582E1,1.4827179E1,4.059082E0,3.6311646E0,2.8630981E0,8.214233E0,0E0,0E0,0E0,0E0,0E0,0E0,0E0,0E0],"parents":[2147483647,0,0,1,1,2,2,3,3,4,4,5,5,6,6],"right_children":[2,4,6,8,10,12,14,-1,-1,-1,-1,-1,-1,-1,-1],"split_conditions":[3.5038977E0,3.2473946E-1,1.3197379E0,4.4354532E-2,1E0,1.68227E3,2.4123058E-1,0E0,0E0,0E0,0E0,0E0,0E0,0E0,-9E-4],"split_indices":[40,17,15,33,2,12,53,0,0,0,0,0,0,0,0],"split_type":[0,0,0,0,0,0,0,0,0,0,0,0,0,0,0],"sum_hessian":[1.615E4,1.1597E4,4.553E3,7.795E3,3.802E3,2.404E3,2.149E3,5.987E3,1.808E3,2.21E3,1.592E3,4.95E2,1.909E3,2.007E3,1.42E2],"tree_param":{"num_deleted":"0","num_feature":"69","num_nodes":"15","size_leaf_vector":"1"}},{"base_weights":[-3.8983887E-1,-4.1894764E-1,-3.1237322E-1,-3.6566043E-1,-4.510513E-1,-3.530215E-1,-2.3278145E-1,-1.0969813E-2,-1.2250676E-2,-1.39558045E-2,-1.2494311E-2,-8.787044E-3,-1.0969813E-2,-8.787044E-3,-4.197443E-3],"categories":[],"categories_nodes":[],"categories_segments":[],"categories_sizes":[],"default_left":[0,0,0,0,0,0,0,0,0,0,0,0,0,0,0],"id":5,"left_children":[1,3,5,7,9,11,13,-1,-1,-1,-1,-1,-1,-1,-1],"loss_changes":[3.6241943E1,2.0806885E1,1.4171082E1,4.3669434E0,3.253296E0,4.9606323E0,1.0754837E1,0E0,0E0,0E0,0E0,0E0,0E0,0E0,0E0],"parents":[2147483647,0,0,1,1,2,2,3,3,4,4,5,5,6,6],"right_children":[2,4,6,8,10,12,14,-1,-1,-1,-1,-1,-1,-1,-1],"split_conditions":[3.5571322E0,1.0814334E0,1.5756723E0,1E0,3.4134682E-2,7.014075E-1,1.0400314E-1,0E0,0E0,0E0,0E0,0E0,0E0,0E0,0E0],"split_indices":[40,16,15,2,33,16,33,0,0,0,0,0,0,0,0],"split_type":[0,0,0,0,0,0,0,0,0,0,0,0,0,0,0],"sum_hessian":[1.6197E4,1.1762E4,4.435E3,4.297E3,7.465E3,2.927E3,1.508E3,2.5E3,1.797E3,5.27E3,2.195E3,5.6E2,2.367E3,8.06E2,7.02E2],"tree_param":{"num_deleted":"0","num_feature":"69","num_nodes":"15","size_leaf_vector":"1"}},{"base_weights":[-3.8975722E-1,-4.1948378E-1,-3.164246E-1,-4.4538108E-1,-4.036774E-1,-3.323389E-1,-1.7914979E-1,-1.3669122E-2,-1.2735877E-2,-1.2595895E-2,-1.1100508E-2,-1.029723E-2,-7.67233E-3,-7.1601206E-3,-1.6363636E-3],"categories":[],"categories_nodes":[],"categories_segments":[],"categories_sizes":[],"default_left":[0,0,0,0,0,0,0,0,0,0,0,0,0,0,0],"id":6,"left_children":[1,3,5,7,9,11,13,-1,-1,-1,-1,-1,-1,-1,-1],"loss_changes":[3.499951E1,4.355591E0,1.0048645E1,7.883911E-1,3.591919E0,3.5020447E0,3.6052017E0,0E0,0E0,0E0,0E0,0E0,0E0,0E0,0E0],"parents":[2147483647,0,0,1,1,2,2,3,3,4,4,5,5,6,6],"right_children":[2,4,6,8,10,12,14,-1,-1,-1,-1,-1,-1,-1,-1],"split_conditions":[3.4516873E0,1.35242E0,2.1679886E-1,3.5E1,-4.901961E-2,1E0,1.7354722E0,0E0,0E0,0E0,0E0,0E0,0E0,0E0,0E0],"split_indices":[40,40,35,7,67,3,47,0,0,0,0,0,0,0,0],"split_type":[0,0,0,0,0,0,0,0,0,0,0,0,0,0,0],"sum_hessian":[1.6185E4,1.1505E4,4.68E3,4.328E3,7.177E3,4.188E3,4.92E2,3.12E3,1.208E3,4.821E3,2.356E3,3.682E3,5.06E2,3.29E2,1.63E2],"tree_param":{"num_deleted":"0","num_feature":"69","num_nodes":"15","size_leaf_vector":"1"}},{"base_weights":[-3.893592E-1,-4.1543534E-1,-2.9774812E-1,-3.5965794E-1,-4.5164043E-1,-3.4650457E-1,-2.1026234E-1,-1.2169476E-2,-1.0697751E-2,-1.4214246E-2,-1.2940956E-2,-8.351504E-3,-1.0697751E-2,-8.351504E-3,-3.5402095E-3],"categories":[],"categories_nodes":[],"categories_segments":[],"categories_sizes":[],"default_left":[0,0,0,0,0,0,0,0,0,0,0,0,0,0,0],"id":7,"left_children":[1,3,5,7,9,11,13,-1,-1,-1,-1,-1,-1,-1,-1],"loss_changes":[3.8378418E1,2.5086182E1,1.51779175E1,5.9329834E0,3.0170898E0,5.9432983E0,8.450867E0,0E0,0E0,0E0,0E0,0E0,0E0,0E0,0E0],"parents":[2147483647,0,0,1,1,2,2,3,3,4,4,5,5,6,6],"right_children":[2,4,6,8,10,12,14,-1,-1,-1,-1,-1,-1,-1,-1],"split_conditions":[1.9610842E-1,1.1245E0,1.5264602E0,1.9405788E0,1.1788969E0,5.71453E-1,1.3415803E-1,0E0,0E0,0E0,0E0,0E0,0E0,0E0,0E0],"split_indices":[38,16,15,44,15,10,53,0,0,0,0,0,0,0,0],"split_type":[0,0,0,0,0,0,0,0,0,0,0,0,0,0,0],"sum_hessian":[1.6181E4,1.2586E4,3.595E3,4.968E3,7.618E3,2.301E3,1.294E3,2.417E3,2.551E3,3.606E3,4.012E3,3.1E2,1.991E3,7.24E2,5.7E2],"tree_param":{"num_deleted":"0","num_feature":"69","num_nodes":"15","size_leaf_vector":"1"}},{"base_weights":[-3.8952667E-1,-4.1857645E-1,-3.091119E-1,-3.6384416E-1,-4.5020393E-1,-3.5142162E-1,-2.2436339E-1,-1.0915324E-2,-1.221072E-2,-1.3776026E-2,-1.221072E-2,-8.636775E-3,-1.0915324E-2,-8.611726E-3,-3.5934665E-3],"categories":[],"categories_nodes":[],"categories_segments":[],"categories_sizes":[],"default_left":[0,0,0,0,0,0,0,0,0,0,0,0,0,0,0],"id":8,"left_children":[1,3,5,7,9,11,13,-1,-1,-1,-1,-1,-1,-1,-1],"loss_changes":[3.776709E1,2.0639404E1,1.5365021E1,4.009033E0,3.2884521E0,5.3241577E0,9.437065E0,0E0,0E0,0E0,0E0,0E0,0E0,0E0,0E0],"parents":[2147483647,0,0,1,1,2,2,3,3,4,4,5,5,6,6],"right_children":[2,4,6,8,10,12,14,-1,-1,-1,-1,-1,-1,-1,-1],"split_conditions":[3.615103E0,1.0814334E0,1.5756723E0,1E0,1.3132721E-1,6.278016E-1,1.2689069E-1,0E0,0E0,0E0,0E0,0E0,0E0,0E0,0E0],"split_indices":[40,16,15,2,38,16,51,0,0,0,0,0,0,0,0],"split_type":[0,0,0,0,0,0,0,0,0,0,0,0,0,0,0],"sum_hessian":[1.6287E4,1.1954E4,4.333E3,4.355E3,7.599E3,2.882E3,1.451E3,2.511E3,1.844E3,6.53E3,1.069E3,4.48E2,2.434E3,9.02E2,5.49E2],"tree_param":{"num_deleted":"0","num_feature":"69","num_nodes":"15","size_leaf_vector":"1"}},{"base_weights":[-3.8922155E-1,-4.1629013E-1,-3.0076176E-1,-3.6116722E-1,-4.4704697E-1,-3.3016083E-1,-1.8175852E-1,-1.0755777E-2,-1.2123212E-2,-1.389936E-2,-1.2318402E-2,-7.6787905E-3,-1.0367159E-2,-7.6787905E-3,-8.480565E-4],"categories":[],"categories_nodes":[],"categories_segments":[],"categories_sizes":[],"default_left":[0,0,0,0,0,0,0,0,0,0,0,0,0,0,0],"id":9,"left_children":[1,3,5,7,9,11,13,-1,-1,-1,-1,-1,-1,-1,-1],"loss_changes":[3.8506836E1,2.067749E1,1.3154327E1,5.3046875E0,4.3153076E0,4.870453E0,1.0191694E1,0E0,0E0,0E0,0E0,0E0,0E0,0E0,0E0],"parents":[2147483647,0,0,1,1,2,2,3,3,4,4,5,5,6,6],"right_children":[2,4,6,8,10,12,14,-1,-1,-1,-1,-1,-1,-1,-1],"split_conditions":[3.8857617E0,1.0745655E0,1.8709282E0,1E0,3.498664E-2,3E-1,1.3415803E-1,0E0,0E0,0E0,0E0,0E0,0E0,0E0,0E0],"split_indices":[40,16,15,2,33,55,53,0,0,0,0,0,0,0,0],"split_type":[0,0,0,0,0,0,0,0,0,0,0,0,0,0,0],"sum_hessian":[1.6197E4,1.2392E4,3.805E3,4.453E3,7.939E3,3.045E3,7.6E2,2.556E3,1.897E3,5.463E3,2.476E3,3.37E2,2.708E3,4.79E2,2.81E2],"tree_param":{"num_deleted":"0","num_feature":"69","num_nodes":"15","size_leaf_vector":"1"}},{"base_weights":[-3.9092425E-1,-4.1973943E-1,-3.1451067E-1,-4.4596735E-1,-3.6712503E-1,-3.584175E-1,-2.2545701E-1,-1.3717575E-2,-1.2196385E-2,-1.1013751E-2,-1.2196385E-2,-8.758117E-3,-1.1013751E-2,-8.758117E-3,-3.6350365E-3],"categories":[],"categories_nodes":[],"categories_segments":[],"categories_sizes":[],"default_left":[0,0,0,0,0,0,0,0,0,0,0,0,0,0,0],"id":10,"left_children":[1,3,5,7,9,11,13,-1,-1,-1,-1,-1,-1,-1,-1],"loss_changes":[3.5351807E1,1.8270508E1,1.7196075E1,3.6762695E0,3.6778564E0,4.1645203E0,1.3173569E1,0E0,0E0,0E0,0E0,0E0,0E0,0E0,0E0],"parents":[2147483647,0,0,1,1,2,2,3,3,4,4,5,5,6,6],"right_children":[2,4,6,8,10,12,14,-1,-1,-1,-1,-1,-1,-1,-1],"split_conditions":[3.5571322E0,3.3809572E-1,1.5756723E0,6.107166E-2,1E0,1.59202E3,1.0400314E-1,0E0,0E0,0E0,0E0,0E0,0E0,0E0,0E0],"split_indices":[40,17,15,36,2,12,33,0,0,0,0,0,0,0,0],"split_type":[0,0,0,0,0,0,0,0,0,0,0,0,0,0,0],"sum_hessian":[1.6184E4,1.1741E4,4.443E3,8.206E3,3.535E3,2.968E3,1.475E3,6.513E3,1.693E3,2.043E3,1.492E3,3.68E2,2.6E3,7.92E2,6.83E2],"tree_param":{"num_deleted":"0","num_feature":"69","num_nodes":"15","size_leaf_vector":"1"}},{"base_weights":[-3.8965327E-1,-4.1263658E-1,-2.9285485E-1,-3.5376188E-1,-4.4698897E-1,-3.270899E-1,-1.4310052E-1,-1.0582371E-2,-1.2011263E-2,-1.3771481E-2,-1.2085189E-2,-1.0582371E-2,-8.141547E-3,-5.219885E-3,2.9545454E-3],"categories":[],"categories_nodes":[],"categories_segments":[],"categories_sizes":[],"default_left":[0,0,0,0,0,0,0,0,0,0,0,0,0,0,0],"id":11,"left_children":[1,3,5,7,9,11,13,-1,-1,-1,-1,-1,-1,-1,-1],"loss_changes":[3.5779785E1,2.6144043E1,1.5849487E1,6.206482E0,4.008545E0,4.526642E0,4.582741E0,0E0,0E0,0E0,0E0,0E0,0E0,0E0,0E0],"parents":[2147483647,0,0,1,1,2,2,3,3,4,4,5,5,6,6],"right_children":[2,4,6,8,10,12,14,-1,-1,-1,-1,-1,-1,-1,-1],"split_conditions":[2.1855563E-1,1.0814334E0,1.879886E0,1E0,8.4085894E-1,1.299122E0,5.186742E-1,0E0,0E0,0E0,0E0,0E0,0E0,0E0,3E-2],"split_indices":[38,16,15,2,31,15,18,0,0,0,0,0,0,0,0],"split_type":[0,0,0,0,0,0,0,0,0,0,0,0,0,0,0],"sum_hessian":[1.6206E4,1.3087E4,3.119E3,4.836E3,8.251E3,2.534E3,5.85E2,2.806E3,2.03E3,6.457E3,1.794E3,1.554E3,9.8E2,5.21E2,6.4E1],"tree_param":{"num_deleted":"0","num_feature":"69","num_nodes":"15","size_leaf_vector":"1"}},{"base_weights":[-3.8647997E-1,-4.161909E-1,-3.0837053E-1,-3.6228073E-1,-4.4731638E-1,-3.5038707E-1,-2.2501655E-1,-1.0868422E-2,-1.21439565E-2,-1.3799699E-2,-1.21439565E-2,-8.631054E-3,-1.0868422E-2,-7.79953E-3,-9.5338986E-4],"categories":[],"categories_nodes":[],"categories_segments":[],"categories_sizes":[],"default_left":[0,0,0,0,0,0,0,0,0,0,0,0,0,0,0],"id":12,"left_children":[1,3,5,7,9,11,13,-1,-1,-1,-1,-1,-1,-1,-1],"loss_changes":[3.7344727E1,2.0496338E1,1.5511749E1,4.0025635E0,4.2105713E0,5.1532288E0,1.0114273E1,0E0,0E0,0E0,0E0,0E0,0E0,0E0,0E0],"parents":[2147483647,0,0,1,1,2,2,3,3,4,4,5,5,6,6],"right_children":[2,4,6,8,10,12,14,-1,-1,-1,-1,-1,-1,-1,-1],"split_conditions":[3.5571322E0,1.0745655E0,1.5756723E0,1E0,7.069263E-2,4.5970306E-1,1E0,0E0,0E0,0E0,0E0,0E0,0E0,0E0,0E0],"split_indices":[40,16,15,2,45,16,3,0,0,0,0,0,0,0,0],"split_type":[0,0,0,0,0,0,0,0,0,0,0,0,0,0,0],"sum_hessian":[1.6211E4,1.1733E4,4.478E3,4.152E3,7.581E3,2.969E3,1.509E3,2.401E3,1.751E3,5.984E3,1.597E3,3.92E2,2.577E3,1.275E3,2.34E2],"tree_param":{"num_deleted":"0","num_feature":"69","num_nodes":"15","size_leaf_vector":"1"}},{"base_weights":[-3.9057705E-1,-4.181862E-1,-3.0080667E-1,-3.621562E-1,-4.5022768E-1,-3.161972E-1,-1.1186441E-1,-1.2185758E-2,-1.0784892E-2,-1.3794025E-2,-1.2185758E-2,-9.963173E-3,-6.902655E-3,-6.420924E-3,-1.910828E-4],"categories":[],"categories_nodes":[],"categories_segments":[],"categories_sizes":[],"default_left":[0,0,0,0,0,0,0,0,0,0,0,0,0,0,0],"id":13,"left_children":[1,3,5,7,9,11,13,-1,-1,-1,-1,-1,-1,-1,-1],"loss_changes":[4.0091797E1,2.2011475E1,1.101767E1,5.322754E0,3.6872559E0,4.6750793E0,3.4940343E0,0E0,0E0,0E0,0E0,0E0,0E0,0E0,0E0],"parents":[2147483647,0,0,1,1,2,2,3,3,4,4,5,5,6,6],"right_children":[2,4,6,8,10,12,14,-1,-1,-1,-1,-1,-1,-1,-1],"split_conditions":[3.8857617E0,1.0814334E0,2.4123058E-1,4.4E1,6.584404E-2,1E0,1.2527409E0,0E0,0E0,0E0,0E0,0E0,0E0,0E0,0E0],"split_indices":[40,16,53,7,51,3,47,0,0,0,0,0,0,0,0],"split_type":[0,0,0,0,0,0,0,0,0,0,0,0,0,0,0],"sum_hessian":[1.6288E4,1.2447E4,3.841E3,4.543E3,7.904E3,3.548E3,2.93E2,1.877E3,2.666E3,6.727E3,1.177E3,2.985E3,5.63E2,1.38E2,1.55E2],"tree_param":{"num_deleted":"0","num_feature":"69","num_nodes":"15","size_leaf_vector":"1"}},{"base_weights":[-3.9094663E-1,-4.131101E-1,-2.864163E-1,-4.4106016E-1,-3.497632E-1,-3.415024E-1,-1.791581E-1,-1.186235E-2,-1.3454103E-2,-1.1825153E-2,-1.0492897E-2,-7.8099077E-3,-1.0492897E-2,-6.226744E-3,9.051724E-4],"categories":[],"categories_nodes":[],"categories_segments":[],"categories_sizes":[],"default_left":[0,0,0,0,0,0,0,0,0,0,0,0,0,0,0],"id":14,"left_children":[1,3,5,7,9,11,13,-1,-1,-1,-1,-1,-1,-1,-1],"loss_changes":[3.7313965E1,2.4087646E1,1.6684692E1,3.9344482E0,4.300171E0,5.5151215E0,5.9502144E0,0E0,0E0,0E0,0E0,0E0,0E0,0E0,0E0],"parents":[2147483647,0,0,1,1,2,2,3,3,4,4,5,5,6,6],"right_children":[2,4,6,8,10,12,14,-1,-1,-1,-1,-1,-1,-1,-1],"split_conditions":[2.434867E-1,3.3809572E-1,1.5756723E0,1.5243563E3,8.5E1,1.4285715E-1,2.4123058E-1,0E0,0E0,0E0,0E0,0E0,0E0,0E0,2.9127E-2],"split_indices":[20,17,15,12,7,55,53,0,0,0,0,0,0,0,0],"split_type":[0,0,0,0,0,0,0,0,0,0,0,0,0,0,0],"sum_hessian":[1.6224E4,1.3377E4,2.847E3,9.355E3,4.022E3,1.875E3,9.72E2,9.25E2,8.43E3,2.28E3,1.742E3,2.5E2,1.625E3,8.58E2,1.14E2],"tree_param":{"num_deleted":"0","num_feature":"69","num_nodes":"15","size_leaf_vector":"1"}},{"base_weights":[-3.8889232E-1,-4.18384E-1,-3.1255537E-1,-4.4443765E-1,-3.654697E-1,-3.6438924E-1,-2.5249642E-1,-1.3655029E-2,-1.2148609E-2,-1.0964091E-2,-1.2148609E-2,-9.253285E-3,-1.0964091E-2,-8.1317E-3,-0E0],"categories":[],"categories_nodes":[],"categories_segments":[],"categories_sizes":[],"default_left":[0,0,0,0,0,0,0,0,0,0,0,0,0,0,0],"id":15,"left_children":[1,3,5,7,9,11,13,-1,-1,-1,-1,-1,-1,-1,-1],"loss_changes":[3.6095947E1,1.8160889E1,1.3870544E1,3.324707E0,3.7525024E0,4.0490723E0,9.874039E0,0E0,0E0,0E0,0E0,0E0,0E0,0E0,0E0],"parents":[2147483647,0,0,1,1,2,2,3,3,4,4,5,5,6,6],"right_children":[2,4,6,8,10,12,14,-1,-1,-1,-1,-1,-1,-1,-1],"split_conditions":[3.5285635E0,3.3809572E-1,1.3197379E0,6.107166E-2,1E0,3E-1,2.4123058E-1,0E0,0E0,0E0,0E0,0E0,0E0,0E0,1.3240095E-2],"split_indices":[40,17,15,36,2,55,53,0,0,0,0,0,0,0,0],"split_type":[0,0,0,0,0,0,0,0,0,0,0,0,0,0,0],"sum_hessian":[1.6158E4,1.1644E4,4.514E3,8.178E3,3.466E3,2.413E3,2.101E3,6.5E3,1.678E3,2.014E3,1.452E3,3.73E2,2.04E3,1.957E3,1.44E2],"tree_param":{"num_deleted":"0","num_feature":"69","num_nodes":"15","size_leaf_vector":"1"}},{"base_weights":[-3.8953057E-1,-4.165927E-1,-3.0097342E-1,-3.5878307E-1,-4.504327E-1,-3.5343617E-1,-2.3287259E-1,-1.2138236E-2,-1.07634915E-2,-1.3866688E-2,-1.2185824E-2,-8.794632E-3,-1.07634915E-2,-7.96604E-3,-2.074468E-3],"categories":[],"categories_nodes":[],"categories_segments":[],"categories_sizes":[],"default_left":[0,0,0,0,0,0,0,0,0,0,0,0,0,0,0],"id":16,"left_children":[1,3,5,7,9,11,13,-1,-1,-1,-1,-1,-1,-1,-1],"loss_changes":[3.851831E1,2.437085E1,1.3407593E1,3.8895874E0,3.706665E0,4.5611267E0,8.796082E0,0E0,0E0,0E0,0E0,0E0,0E0,0E0,0E0],"parents":[2147483647,0,0,1,1,2,2,3,3,4,4,5,5,6,6],"right_children":[2,4,6,8,10,12,14,-1,-1,-1,-1,-1,-1,-1,-1],"split_conditions":[3.8857617E0,1.0814334E0,1.373877E0,1.3423562E0,6.340794E-2,1.59202E3,2.3473173E-1,0E0,0E0,0E0,0E0,0E0,0E0,0E0,0E0],"split_indices":[40,16,15,44,36,12,51,0,0,0,0,0,0,0,0],"split_type":[0,0,0,0,0,0,0,0,0,0,0,0,0,0,0],"sum_hessian":[1.6188E4,1.2389E4,3.799E3,4.533E3,7.856E3,2.137E3,1.662E3,1.809E3,2.724E3,6.179E3,1.677E3,3.19E2,1.818E3,1.382E3,2.8E2],"tree_param":{"num_deleted":"0","num_feature":"69","num_nodes":"15","size_leaf_vector":"1"}},{"base_weights":[-3.9047882E-1,-4.192966E-1,-3.1768015E-1,-3.6848837E-1,-4.5033967E-1,-3.582016E-1,-2.394455E-1,-1.1054651E-2,-1.2282421E-2,-1.3868383E-2,-1.2386614E-2,-8.964706E-3,-1.1054651E-2,-8.952513E-3,-3.4368932E-3],"categories":[],"categories_nodes":[],"categories_segments":[],"categories_sizes":[],"default_left":[0,0,0,0,0,0,0,0,0,0,0,0,0,0,0],"id":17,"left_children":[1,3,5,7,9,11,13,-1,-1,-1,-1,-1,-1,-1,-1],"loss_changes":[3.3798096E1,1.9048828E1,1.4458984E1,4.239197E0,2.8966064E0,5.436676E0,1.1586159E1,0E0,0E0,0E0,0E0,0E0,0E0,0E0,0E0],"parents":[2147483647,0,0,1,1,2,2,3,3,4,4,5,5,6,6],"right_children":[2,4,6,8,10,12,14,-1,-1,-1,-1,-1,-1,-1,-1],"split_conditions":[3.478474E0,1.0814334E0,1.5756723E0,1E0,5.282853E-2,7.4974036E-1,1.3415803E-1,0E0,0E0,0E0,0E0,0E0,0E0,0E0,0E0],"split_indices":[40,16,15,2,18,16,53,0,0,0,0,0,0,0,0],"split_type":[0,0,0,0,0,0,0,0,0,0,0,0,0,0,0],"sum_hessian":[1.6246E4,1.1627E4,4.619E3,4.269E3,7.358E3,3.034E3,1.585E3,2.451E3,1.818E3,5.552E3,1.806E3,6.22E2,2.412E3,1.072E3,5.13E2],"tree_param":{"num_deleted":"0","num_feature":"69","num_nodes":"15","size_leaf_vector":"1"}},{"base_weights":[-3.8857758E-1,-4.1887867E-1,-3.0893493E-1,-3.639068E-1,-4.514478E-1,-3.5965955E-1,-2.4312627E-1,-1.09172035E-2,-1.2230319E-2,-1.3856356E-2,-1.2230319E-2,-9.041787E-3,-1.09172035E-2,-8.918323E-3,-3.6079076E-3],"categories":[],"categories_nodes":[],"categories_segments":[],"categories_sizes":[],"default_left":[0,0,0,0,0,0,0,0,0,0,0,0,0,0,0],"id":18,"left_children":[1,3,5,7,9,11,13,-1,-1,-1,-1,-1,-1,-1,-1],"loss_changes":[3.8908203E1,2.1148926E1,1.4799042E1,4.092346E0,3.0620117E0,4.614624E0,1.2960945E1,0E0,0E0,0E0,0E0,0E0,0E0,0E0,0E0],"parents":[2147483647,0,0,1,1,2,2,3,3,4,4,5,5,6,6],"right_children":[2,4,6,8,10,12,14,-1,-1,-1,-1,-1,-1,-1,-1],"split_conditions":[3.5571322E0,1.0814334E0,1.373877E0,1E0,6.340794E-2,6.278016E-1,1.4398792E-1,0E0,0E0,0E0,0E0,0E0,0E0,0E0,0E0],"split_indices":[40,16,15,2,36,16,35,0,0,0,0,0,0,0,0],"split_type":[0,0,0,0,0,0,0,0,0,0,0,0,0,0,0],"sum_hessian":[1.6238E4,1.1752E4,4.486E3,4.329E3,7.423E3,2.524E3,1.962E3,2.503E3,1.826E3,5.992E3,1.431E3,4.5E2,2.074E3,1.357E3,6.05E2],"tree_param":{"num_deleted":"0","num_feature":"69","num_nodes":"15","size_leaf_vector":"1"}},{"base_weights":[-3.922987E-1,-4.2217883E-1,-3.132692E-1,-4.452013E-1,-3.6860597E-1,-3.328145E-1,-1.8912338E-1,-1.3730475E-2,-1.2207109E-2,-1.103172E-2,-1.2207109E-2,-1.0963608E-2,-8.963798E-3,-7.0669744E-3,-2.2702701E-3],"categories":[],"categories_nodes":[],"categories_segments":[],"categories_sizes":[],"default_left":[0,0,0,0,0,0,0,0,0,0,0,0,0,0,0],"id":19,"left_children":[1,3,5,7,9,11,13,-1,-1,-1,-1,-1,-1,-1,-1],"loss_changes":[3.806958E1,1.4182129E1,1.0665649E1,3.8009033E0,4.0633545E0,4.0615845E0,3.1764164E0,0E0,0E0,0E0,0E0,0E0,0E0,0E0,0E0],"parents":[2147483647,0,0,1,1,2,2,3,3,4,4,5,5,6,6],"right_children":[2,4,6,8,10,12,14,-1,-1,-1,-1,-1,-1,-1,-1],"split_conditions":[3.5285635E0,3.3809572E-1,2.0535439E-1,4.4354532E-2,1E0,2.7391464E-1,1.7926801E0,0E0,0E0,0E0,0E0,0E0,0E0,0E0,0E0],"split_indices":[40,17,35,33,2,17,29,0,0,0,0,0,0,0,0],"split_type":[0,0,0,0,0,0,0,0,0,0,0,0,0,0,0],"sum_hessian":[1.6242E4,1.1775E4,4.467E3,8.219E3,3.556E3,3.853E3,6.14E2,6.272E3,1.947E3,2.064E3,1.492E3,1.949E3,1.904E3,4.31E2,1.83E2],"tree_param":{"num_deleted":"0","num_feature":"69","num_nodes":"15","size_leaf_vector":"1"}},{"base_weights":[-3.893031E-1,-4.1409746E-1,-3.0530855E-1,-3.59703E-1,-4.502752E-1,-3.59703E-1,-2.2031039E-1,-1.079109E-2,-1.2149674E-2,-1.3818224E-2,-1.2149674E-2,-8.7002E-3,-1.079109E-2,-7.1934303E-3,3.9473682E-4],"categories":[],"categories_nodes":[],"categories_segments":[],"categories_sizes":[],"default_left":[0,0,0,0,0,0,0,0,0,0,0,0,0,0,0],"id":20,"left_children":[1,3,5,7,9,11,13,-1,-1,-1,-1,-1,-1,-1,-1],"loss_changes":[3.351587E1,2.8311523E1,1.7472015E1,4.3189087E0,3.3519287E0,4.5481567E0,6.8890915E0,0E0,0E0,0E0,0E0,0E0,0E0,0E0,0E0],"parents":[2147483647,0,0,1,1,2,2,3,3,4,4,5,5,6,6],"right_children":[2,4,6,8,10,12,14,-1,-1,-1,-1,-1,-1,-1,-1],"split_conditions":[1.9860984E-1,1.0745655E0,1.43088E0,1E0,8.4969074E-1,3.6E-1,5.186742E-1,0E0,0E0,0E0,0E0,0E0,0E0,0E0,2.6955986E-2],"split_indices":[20,16,15,2,31,10,18,0,0,0,0,0,0,0,0],"split_type":[0,0,0,0,0,0,0,0,0,0,0,0,0,0,0],"sum_hessian":[1.6227E4,1.2518E4,3.709E3,4.526E3,7.992E3,2.229E3,1.48E3,2.628E3,1.898E3,6.484E3,1.508E3,2.75E2,1.954E3,1.368E3,1.12E2],"tree_param":{"num_deleted":"0","num_feature":"69","num_nodes":"15","size_leaf_vector":"1"}},{"base_weights":[-3.8981256E-1,-4.1973522E-1,-3.1621912E-1,-4.4625467E-1,-3.6797717E-1,-3.594904E-1,-2.5551564E-1,-1.3853811E-2,-1.24744335E-2,-1.2213478E-2,-1.1039315E-2,-9.22509E-3,-1.1039315E-2,-9.085276E-3,-4.2487043E-3],"categories":[],"categories_nodes":[],"categories_segments":[],"categories_sizes":[],"default_left":[0,0,0,0,0,0,0,0,0,0,0,0,0,0,0],"id":21,"left_children":[1,3,5,7,9,11,13,-1,-1,-1,-1,-1,-1,-1,-1],"loss_changes":[3.507617E1,1.8280396E1,1.2034943E1,3.3973389E0,2.496582E0,5.1539307E0,1.0386375E1,0E0,0E0,0E0,0E0,0E0,0E0,0E0,0E0],"parents":[2147483647,0,0,1,1,2,2,3,3,4,4,5,5,6,6],"right_children":[2,4,6,8,10,12,14,-1,-1,-1,-1,-1,-1,-1,-1],"split_conditions":[3.4516873E0,3.3809572E-1,1.4030868E0,5.192917E-1,6.0481274E-1,5.71453E-1,1.4112686E-1,0E0,0E0,0E0,0E0,0E0,0E0,0E0,0E0],"split_indices":[40,17,15,31,24,10,53,0,0,0,0,0,0,0,0],"split_type":[0,0,0,0,0,0,0,0,0,0,0,0,0,0,0],"sum_hessian":[1.6057E4,1.1404E4,4.653E3,8.008E3,3.396E3,2.706E3,1.947E3,5.272E3,2.736E3,1.255E3,2.141E3,3.9E2,2.316E3,1.37E3,5.77E2],"tree_param":{"num_deleted":"0","num_feature":"69","num_nodes":"15","size_leaf_vector":"1"}},{"base_weights":[-3.9007968E-1,-4.193281E-1,-3.1896004E-1,-3.6914408E-1,-4.533265E-1,-3.6914408E-1,-2.661638E-1,-1.1074322E-2,-1.2337058E-2,-1.4357063E-2,-1.3099203E-2,-9.529619E-3,-1.1074322E-2,-8.673123E-3,-2.3346301E-3],"categories":[],"categories_nodes":[],"categories_segments":[],"categories_sizes":[],"default_left":[0,0,0,0,0,0,0,0,0,0,0,0,0,0,0],"id":22,"left_children":[1,3,5,7,9,11,13,-1,-1,-1,-1,-1,-1,-1,-1],"loss_changes":[3.3386963E1,1.9259888E1,1.2363434E1,4.3737183E0,2.4605713E0,4.3649597E0,9.89621E0,0E0,0E0,0E0,0E0,0E0,0E0,0E0,0E0],"parents":[2147483647,0,0,1,1,2,2,3,3,4,4,5,5,6,6],"right_children":[2,4,6,8,10,12,14,-1,-1,-1,-1,-1,-1,-1,-1],"split_conditions":[3.4516873E0,1.1422431E0,1.299122E0,1E0,1.0749868E0,3.6E-1,2.0972311E-1,0E0,0E0,0E0,0E0,0E0,0E0,0E0,0E0],"split_indices":[40,16,15,2,15,10,53,0,0,0,0,0,0,0,0],"split_type":[0,0,0,0,0,0,0,0,0,0,0,0,0,0,0],"sum_hessian":[1.6187E4,1.1458E4,4.729E3,4.636E3,6.822E3,2.411E3,2.318E3,2.651E3,1.985E3,2.681E3,4.141E3,3.49E2,2.062E3,2.063E3,2.55E2],"tree_param":{"num_deleted":"0","num_feature":"69","num_nodes":"15","size_leaf_vector":"1"}},{"base_weights":[-3.9058968E-1,-4.1602722E-1,-3.0394524E-1,-3.6269286E-1,-4.5617446E-1,-3.5789475E-1,-2.2683086E-1,-1.22830095E-2,-1.0799587E-2,-1.4421106E-2,-1.3171074E-2,-8.770884E-3,-1.0799587E-2,-8.272276E-3,-3.981308E-3],"categories":[],"categories_nodes":[],"categories_segments":[],"categories_sizes":[],"default_left":[0,0,0,0,0,0,0,0,0,0,0,0,0,0,0],"id":23,"left_children":[1,3,5,7,9,11,13,-1,-1,-1,-1,-1,-1,-1,-1],"loss_changes":[3.5785645E1,2.6729736E1,1.532724E1,5.985901E0,2.6080322E0,4.3242188E0,7.0075684E0,0E0,0E0,0E0,0E0,0E0,0E0,0E0,0E0],"parents":[2147483647,0,0,1,1,2,2,3,3,4,4,5,5,6,6],"right_children":[2,4,6,8,10,12,14,-1,-1,-1,-1,-1,-1,-1,-1],"split_conditions":[1.88764E-1,1.1785041E0,1.43088E0,1.1023966E0,1.0785711E0,1E0,1.5114908E-1,0E0,0E0,0E0,0E0,0E0,0E0,0E0,0E0],"split_indices":[38,16,15,22,15,68,35,0,0,0,0,0,0,0,0],"split_type":[0,0,0,0,0,0,0,0,0,0,0,0,0,0,0],"sum_hessian":[1.6363E4,1.2639E4,3.724E3,5.442E3,7.197E3,2.183E3,1.541E3,1.599E3,3.843E3,2.926E3,4.271E3,3.55E2,1.828E3,1.008E3,5.33E2],"tree_param":{"num_deleted":"0","num_feature":"69","num_nodes":"15","size_leaf_vector":"1"}},{"base_weights":[-3.901265E-1,-4.1687444E-1,-3.0166933E-1,-3.5927188E-1,-4.500881E-1,-3.4167615E-1,-2.0807727E-1,-1.0778156E-2,-1.21404E-2,-1.4124165E-2,-1.2796E-2,-8.246302E-3,-1.0750542E-2,-7.4079754E-3,7.361963E-4],"categories":[],"categories_nodes":[],"categories_segments":[],"categories_sizes":[],"default_left":[0,0,0,0,0,0,0,0,0,0,0,0,0,0,0],"id":24,"left_children":[1,3,5,7,9,11,13,-1,-1,-1,-1,-1,-1,-1,-1],"loss_changes":[3.805957E1,2.4040527E1,1.3962097E1,5.9611206E0,3.4735107E0,4.160095E0,1.0481449E1,0E0,0E0,0E0,0E0,0E0,0E0,0E0,0E0],"parents":[2147483647,0,0,1,1,2,2,3,3,4,4,5,5,6,6],"right_children":[2,4,6,8,10,12,14,-1,-1,-1,-1,-1,-1,-1,-1],"split_conditions":[3.8857617E0,1.0745655E0,1.6264771E0,1E0,1.2313361E0,1.59202E3,2.6994956E-1,0E0,0E0,0E0,0E0,0E0,0E0,0E0,2.7047308E-2],"split_indices":[40,16,15,2,15,12,33,0,0,0,0,0,0,0,0],"split_type":[0,0,0,0,0,0,0,0,0,0,0,0,0,0,0],"sum_hessian":[1.6203E4,1.2431E4,3.772E3,4.489E3,7.942E3,2.635E3,1.137E3,2.589E3,1.9E3,4.194E3,3.748E3,3.32E2,2.303E3,9.76E2,1.61E2],"tree_param":{"num_deleted":"0","num_feature":"69","num_nodes":"15","size_leaf_vector":"1"}},{"base_weights":[-3.8702476E-1,-4.1747406E-1,-3.0714926E-1,-3.637319E-1,-4.484627E-1,-3.2578442E-1,-1.6113281E-1,-1.0869349E-2,-1.2182918E-2,-1.3808197E-2,-1.2182918E-2,-8.581428E-3,-1.0869349E-2,-6.728571E-3,-6.402439E-4],"categories":[],"categories_nodes":[],"categories_segments":[],"categories_sizes":[],"default_left":[0,0,0,0,0,0,0,0,0,0,0,0,0,0,0],"id":25,"left_children":[1,3,5,7,9,11,13,-1,-1,-1,-1,-1,-1,-1,-1],"loss_changes":[3.8932373E1,1.9085938E1,1.1972595E1,4.090393E0,3.8294678E0,6.8889465E0,4.4721622E0,0E0,0E0,0E0,0E0,0E0,0E0,0E0,0E0],"parents":[2147483647,0,0,1,1,2,2,3,3,4,4,5,5,6,6],"right_children":[2,4,6,8,10,12,14,-1,-1,-1,-1,-1,-1,-1,-1],"split_conditions":[3.5285635E0,1.0814334E0,2.0972311E-1,1E0,6.340794E-2,1.2636193E0,1.7926801E0,0E0,0E0,0E0,0E0,0E0,0E0,0E0,0E0],"split_indices":[40,16,53,2,36,16,29,0,0,0,0,0,0,0,0],"split_type":[0,0,0,0,0,0,0,0,0,0,0,0,0,0,0],"sum_hessian":[1.6121E4,1.1661E4,4.46E3,4.28E3,7.381E3,3.95E3,5.1E2,2.47E3,1.81E3,5.926E3,1.455E3,2.141E3,1.809E3,3.48E2,1.62E2],"tree_param":{"num_deleted":"0","num_feature":"69","num_nodes":"15","size_leaf_vector":"1"}},{"base_weights":[-3.8849387E-1,-4.188337E-1,-3.1188872E-1,-4.4610077E-1,-3.653612E-1,-3.2401392E-1,-1.2969284E-1,-1.38071105E-2,-1.2289943E-2,-1.0960836E-2,-1.217193E-2,-1.0157995E-2,-7.160686E-3,-5.741627E-3,5.2325585E-4],"categories":[],"categories_nodes":[],"categories_segments":[],"categories_sizes":[],"default_left":[0,0,0,0,0,0,0,0,0,0,0,0,0,0,0],"id":26,"left_children":[1,3,5,7,9,11,13,-1,-1,-1,-1,-1,-1,-1,-1],"loss_changes":[3.730713E1,1.9577637E1,9.995209E0,3.7926025E0,3.699463E0,5.1669617E0,2.8324747E0,0E0,0E0,0E0,0E0,0E0,0E0,0E0,0E0],"parents":[2147483647,0,0,1,1,2,2,3,3,4,4,5,5,6,6],"right_children":[2,4,6,8,10,12,14,-1,-1,-1,-1,-1,-1,-1,-1],"split_conditions":[3.478474E0,3.3809572E-1,2.4123058E-1,3.498664E-2,1E0,1E0,1.9062895E0,0E0,0E0,0E0,0E0,0E0,0E0,0E0,2.6640229E-2],"split_indices":[40,17,53,33,2,3,29,0,0,0,0,0,0,0,0],"split_type":[0,0,0,0,0,0,0,0,0,0,0,0,0,0,0],"sum_hessian":[1.6172E4,1.1573E4,4.599E3,8.115E3,3.458E3,4.308E3,2.91E2,5.82E3,2.295E3,2.026E3,1.432E3,3.669E3,6.39E2,2.07E2,8.4E1],"tree_param":{"num_deleted":"0","num_feature":"69","num_nodes":"15","size_leaf_vector":"1"}},{"base_weights":[-3.9111263E-1,-4.1287255E-1,-2.8913346E-1,-3.550212E-1,-4.4677055E-1,-3.4034717E-1,-1.8691589E-1,-1.2026876E-2,-1.053009E-2,-1.3827558E-2,-1.2189201E-2,-7.908946E-3,-1.053009E-2,-6.416185E-3,1.35E-3],"categories":[],"categories_nodes":[],"categories_segments":[],"categories_sizes":[],"default_left":[0,0,0,0,0,0,0,0,0,0,0,0,0,0,0],"id":27,"left_children":[1,3,5,7,9,11,13,-1,-1,-1,-1,-1,-1,-1,-1],"loss_changes":[3.5701416E1,2.5858398E1,1.4829651E1,5.5860596E0,4.425049E0,5.5272064E0,6.1960716E0,0E0,0E0,0E0,0E0,0E0,0E0,0E0,0E0],"parents":[2147483647,0,0,1,1,2,2,3,3,4,4,5,5,6,6],"right_children":[2,4,6,8,10,12,14,-1,-1,-1,-1,-1,-1,-1,-1],"split_conditions":[2.434867E-1,1.0814334E0,1.5756723E0,1.3423562E0,6.494185E-2,1.4285715E-1,5.186742E-1,0E0,0E0,0E0,0E0,0E0,0E0,0E0,2.5436683E-2],"split_indices":[20,16,15,44,45,55,18,0,0,0,0,0,0,0,0],"split_type":[0,0,0,0,0,0,0,0,0,0,0,0,0,0,0],"sum_hessian":[1.6212E4,1.3352E4,2.86E3,4.947E3,8.405E3,1.899E3,9.61E2,1.798E3,3.149E3,6.203E3,2.202E3,2.46E2,1.653E3,8.63E2,9.8E1],"tree_param":{"num_deleted":"0","num_feature":"69","num_nodes":"15","size_leaf_vector":"1"}},{"base_weights":[-3.901109E-1,-4.1405135E-1,-3.0400229E-1,-3.6207208E-1,-4.5428935E-1,-3.398936E-1,-1.5886524E-1,-1.0770804E-2,-1.2245421E-2,-1.3985465E-2,-1.2658423E-2,-1.07063195E-2,-7.4813827E-3,-7.409201E-3,-9.6938777E-4],"categories":[],"categories_nodes":[],"categories_segments":[],"categories_sizes":[],"default_left":[0,0,0,0,0,0,0,0,0,0,0,0,0,0,0],"id":28,"left_children":[1,3,5,7,9,11,13,-1,-1,-1,-1,-1,-1,-1,-1],"loss_changes":[3.2987305E1,2.605664E1,1.81893E1,6.305969E0,2.3269043E0,4.7654114E0,7.8257694E0,0E0,0E0,0E0,0E0,0E0,0E0,0E0,0E0],"parents":[2147483647,0,0,1,1,2,2,3,3,4,4,5,5,6,6],"right_children":[2,4,6,8,10,12,14,-1,-1,-1,-1,-1,-1,-1,-1],"split_conditions":[2.0755158E-1,1.1803509E0,1.8574554E0,1E0,9.603531E-2,2.0972311E-1,1.325239E-1,0E0,0E0,0E0,0E0,0E0,0E0,0E0,0E0],"split_indices":[20,16,15,2,38,53,53,0,0,0,0,0,0,0,0],"split_type":[0,0,0,0,0,0,0,0,0,0,0,0,0,0,0],"sum_hessian":[1.6137E4,1.2616E4,3.521E3,5.519E3,7.097E3,2.818E3,7.03E2,3.19E3,2.329E3,5.158E3,1.939E3,2.419E3,3.99E2,4.11E2,2.92E2],"tree_param":{"num_deleted":"0","num_feature":"69","num_nodes":"15","size_leaf_vector":"1"}},{"base_weights":[-3.9082062E-1,-4.1785923E-1,-3.1335086E-1,-3.6560506E-1,-4.4982815E-1,-3.540395E-1,-2.318376E-1,-1.09681515E-2,-1.2231498E-2,-1.39538245E-2,-1.2483263E-2,-8.788155E-3,-1.09681515E-2,-8.788155E-3,-2.9129465E-3],"categories":[],"categories_nodes":[],"categories_segments":[],"categories_sizes":[],"default_left":[0,0,0,0,0,0,0,0,0,0,0,0,0,0,0],"id":29,"left_children":[1,3,5,7,9,11,13,-1,-1,-1,-1,-1,-1,-1,-1],"loss_changes":[3.35083E1,2.0793213E1,1.370224E1,4.218872E0,3.5058594E0,5.3768616E0,1.1634392E1,0E0,0E0,0E0,0E0,0E0,0E0,0E0,0E0],"parents":[2147483647,0,0,1,1,2,2,3,3,4,4,5,5,6,6],"right_children":[2,4,6,8,10,12,14,-1,-1,-1,-1,-1,-1,-1,-1],"split_conditions":[3.674506E0,1.0814334E0,1.5756723E0,1E0,4.190703E-2,8.147601E-1,1.4112686E-1,0E0,0E0,0E0,0E0,0E0,0E0,0E0,0E0],"split_indices":[40,16,15,2,18,16,53,0,0,0,0,0,0,0,0],"split_type":[0,0,0,0,0,0,0,0,0,0,0,0,0,0,0],"sum_hessian":[1.6132E4,1.1947E4,4.185E3,4.385E3,7.562E3,2.783E3,1.402E3,2.523E3,1.862E3,5.174E3,2.388E3,6.99E2,2.084E3,9.56E2,4.46E2],"tree_param":{"num_deleted":"0","num_feature":"69","num_nodes":"15","size_leaf_vector":"1"}},{"base_weights":[-3.880745E-1,-4.1484964E-1,-3.0153966E-1,-3.5959354E-1,-4.4724977E-1,-3.329003E-1,-1.7218544E-1,-1.0745839E-2,-1.2102649E-2,-1.3726928E-2,-1.2102649E-2,-1.0511855E-2,-7.5762854E-3,-7.0914393E-3,-9.876543E-4],"categories":[],"categories_nodes":[],"categories_segments":[],"categories_sizes":[],"default_left":[0,0,0,0,0,0,0,0,0,0,0,0,0,0,0],"id":30,"left_children":[1,3,5,7,9,11,13,-1,-1,-1,-1,-1,-1,-1,-1],"loss_changes":[3.717871E1,2.1753662E1,1.5381378E1,5.2524414E0,4.149536E0,5.448822E0,6.69672E0,0E0,0E0,0E0,0E0,0E0,0E0,0E0,0E0],"parents":[2147483647,0,0,1,1,2,2,3,3,4,4,5,5,6,6],"right_children":[2,4,6,8,10,12,14,-1,-1,-1,-1,-1,-1,-1,-1],"split_conditions":[3.8857617E0,1.0814334E0,1.8709282E0,1E0,6.584404E-2,2.0972311E-1,4.4731245E0,0E0,0E0,0E0,0E0,0E0,0E0,0E0,0E0],"split_indices":[40,16,15,2,51,53,30,0,0,0,0,0,0,0,0],"split_type":[0,0,0,0,0,0,0,0,0,0,0,0,0,0,0],"sum_hessian":[1.6165E4,1.2335E4,3.83E3,4.574E3,7.761E3,3.077E3,7.53E2,2.621E3,1.953E3,6.608E3,1.153E3,2.655E3,4.22E2,5.12E2,2.41E2],"tree_param":{"num_deleted":"0","num_feature":"69","num_nodes":"15","size_leaf_vector":"1"}},{"base_weights":[-3.9037764E-1,-4.1859904E-1,-2.9679215E-1,-3.6285025E-1,-4.5067748E-1,-3.1733415E-1,-1.610338E-1,-1.0730867E-2,-1.2202916E-2,-1.3819025E-2,-1.2202916E-2,-8.638329E-3,-1.0730867E-2,-3.1578948E-4,-5.817073E-3],"categories":[],"categories_nodes":[],"categories_segments":[],"categories_sizes":[],"default_left":[0,0,0,0,0,0,0,0,0,0,0,0,0,0,0],"id":31,"left_children":[1,3,5,7,9,11,13,-1,-1,-1,-1,-1,-1,-1,-1],"loss_changes":[4.259204E1,2.1948975E1,1.03593445E1,6.1411133E0,3.2120361E0,4.515564E0,2.4254284E0,0E0,0E0,0E0,0E0,0E0,0E0,0E0,0E0],"parents":[2147483647,0,0,1,1,2,2,3,3,4,4,5,5,6,6],"right_children":[2,4,6,8,10,12,14,-1,-1,-1,-1,-1,-1,-1,-1],"split_conditions":[3.8857617E0,1.0814334E0,2.0972311E-1,1E0,5.6089297E-2,1.4174254E0,5E0,0E0,0E0,0E0,0E0,0E0,0E0,0E0,0E0],"split_indices":[40,16,53,2,51,16,68,0,0,0,0,0,0,0,0],"split_type":[0,0,0,0,0,0,0,0,0,0,0,0,0,0,0],"sum_hessian":[1.6231E4,1.2461E4,3.77E3,4.566E3,7.895E3,3.269E3,5.01E2,2.628E3,1.938E3,6.463E3,1.432E3,2.08E3,1.189E3,9.3E1,4.08E2],"tree_param":{"num_deleted":"0","num_feature":"69","num_nodes":"15","size_leaf_vector":"1"}},{"base_weights":[-3.900635E-1,-4.2131448E-1,-3.1470218E-1,-3.700504E-1,-4.5042512E-1,-3.6586803E-1,-2.556205E-1,-1.1040249E-2,-1.2307133E-2,-1.431938E-2,-1.2988092E-2,-9.3223285E-3,-1.1040249E-2,-8.557743E-3,-2.7665705E-3],"categories":[],"categories_nodes":[],"categories_segments":[],"categories_sizes":[],"default_left":[0,0,0,0,0,0,0,0,0,0,0,0,0,0,0],"id":32,"left_children":[1,3,5,7,9,11,13,-1,-1,-1,-1,-1,-1,-1,-1],"loss_changes":[3.7919678E1,1.6753174E1,1.4222504E1,3.9352417E0,3.0203857E0,5.198395E0,1.065097E1,0E0,0E0,0E0,0E0,0E0,0E0,0E0,0E0],"parents":[2147483647,0,0,1,1,2,2,3,3,4,4,5,5,6,6],"right_children":[2,4,6,8,10,12,14,-1,-1,-1,-1,-1,-1,-1,-1],"split_conditions":[3.4516873E0,1.0814334E0,1.3197379E0,1E0,1.0749868E0,7.4974036E-1,1E0,0E0,0E0,0E0,0E0,0E0,0E0,0E0,0E0],"split_indices":[40,16,15,2,15,16,3,0,0,0,0,0,0,0,0],"split_type":[0,0,0,0,0,0,0,0,0,0,0,0,0,0,0],"sum_hessian":[1.6221E4,1.1455E4,4.766E3,4.165E3,7.29E3,2.544E3,2.222E3,2.399E3,1.766E3,2.841E3,4.449E3,5.78E2,1.966E3,1.877E3,3.45E2],"tree_param":{"num_deleted":"0","num_feature":"69","num_nodes":"15","size_leaf_vector":"1"}},{"base_weights":[-3.904527E-1,-4.1709366E-1,-3.013077E-1,-3.6125082E-1,-4.4917288E-1,-3.592007E-1,-2.334675E-1,-1.2156356E-2,-1.0776021E-2,-1.3815118E-2,-1.2156356E-2,-8.8900225E-3,-1.0776021E-2,-7.920997E-3,-2.466443E-3],"categories":[],"categories_nodes":[],"categories_segments":[],"categories_sizes":[],"default_left":[0,0,0,0,0,0,0,0,0,0,0,0,0,0,0],"id":33,"left_children":[1,3,5,7,9,11,13,-1,-1,-1,-1,-1,-1,-1,-1],"loss_changes":[3.8274414E1,2.2037842E1,1.4607239E1,5.473572E0,4.15625E0,3.2746277E0,7.9359055E0,0E0,0E0,0E0,0E0,0E0,0E0,0E0,0E0],"parents":[2147483647,0,0,1,1,2,2,3,3,4,4,5,5,6,6],"right_children":[2,4,6,8,10,12,14,-1,-1,-1,-1,-1,-1,-1,-1],"split_conditions":[3.9146743E0,1.0814334E0,1.3237957E0,4.4E1,1.870456E0,5.200398E-1,1E0,0E0,0E0,0E0,0E0,0E0,0E0,0E0,0E0],"split_indices":[40,16,15,7,30,16,3,0,0,0,0,0,0,0,0],"split_type":[0,0,0,0,0,0,0,0,0,0,0,0,0,0,0],"sum_hessian":[1.6233E4,1.2488E4,3.745E3,4.571E3,7.917E3,2.008E3,1.737E3,1.921E3,2.65E3,6.467E3,1.45E3,3.4E2,1.668E3,1.441E3,2.96E2],"tree_param":{"num_deleted":"0","num_feature":"69","num_nodes":"15","size_leaf_vector":"1"}},{"base_weights":[-3.8699093E-1,-4.1902536E-1,-3.0885756E-1,-4.45579E-1,-4.0216932E-1,-3.5152328E-1,-2.3614253E-1,-1.27162235E-2,-1.3813439E-2,-1.27162235E-2,-1.1540089E-2,-8.814987E-3,-1.0918244E-2,-8.814987E-3,-3.3421053E-3],"categories":[],"categories_nodes":[],"categories_segments":[],"categories_sizes":[],"default_left":[0,0,0,0,0,0,0,0,0,0,0,0,0,0,0],"id":34,"left_children":[1,3,5,7,9,11,13,-1,-1,-1,-1,-1,-1,-1,-1],"loss_changes":[4.0526367E1,4.817505E0,1.456488E1,2.274231E0,2.8155518E0,5.7697754E0,1.2788231E1,0E0,0E0,0E0,0E0,0E0,0E0,0E0,0E0],"parents":[2147483647,0,0,1,1,2,2,3,3,4,4,5,5,6,6],"right_children":[2,4,6,8,10,12,14,-1,-1,-1,-1,-1,-1,-1,-1],"split_conditions":[3.4516873E0,1.0844262E0,1.4807322E0,8.329911E-1,1.4729334E0,1.6691E3,1.3415803E-1,0E0,0E0,0E0,0E0,0E0,0E0,0E0,0E0],"split_indices":[40,15,15,10,40,12,53,0,0,0,0,0,0,0,0],"split_type":[0,0,0,0,0,0,0,0,0,0,0,0,0,0,0],"sum_hessian":[1.6302E4,1.1551E4,4.751E3,4.454E3,7.097E3,2.985E3,1.766E3,9.29E2,3.525E3,2.846E3,4.251E3,4.7E2,2.515E3,1.198E3,5.68E2],"tree_param":{"num_deleted":"0","num_feature":"69","num_nodes":"15","size_leaf_vector":"1"}},{"base_weights":[-3.8749146E-1,-4.1557336E-1,-2.9480693E-1,-3.587727E-1,-4.4812405E-1,-3.5519016E-1,-2.236842E-1,-1.0655705E-2,-1.21034505E-2,-1.380906E-2,-1.21034505E-2,-8.683115E-3,-1.0655705E-2,-7.3027518E-3,-1.9607843E-4],"categories":[],"categories_nodes":[],"categories_segments":[],"categories_sizes":[],"default_left":[0,0,0,0,0,0,0,0,0,0,0,0,0,0,0],"id":35,"left_children":[1,3,5,7,9,11,13,-1,-1,-1,-1,-1,-1,-1,-1],"loss_changes":[4.1629395E1,2.2496582E1,1.6872131E1,6.2542114E0,3.9545898E0,3.7286987E0,7.554146E0,0E0,0E0,0E0,0E0,0E0,0E0,0E0,0E0],"parents":[2147483647,0,0,1,1,2,2,3,3,4,4,5,5,6,6],"right_children":[2,4,6,8,10,12,14,-1,-1,-1,-1,-1,-1,-1,-1],"split_conditions":[3.8857617E0,1.0814334E0,1.3197379E0,1E0,6.340794E-2,5.71453E-1,5.3628767E-1,0E0,0E0,0E0,0E0,0E0,0E0,0E0,0E0],"split_indices":[40,16,15,2,36,10,27,0,0,0,0,0,0,0,0],"split_type":[0,0,0,0,0,0,0,0,0,0,0,0,0,0,0],"sum_hessian":[1.6099E4,1.2346E4,3.753E3,4.512E3,7.834E3,1.969E3,1.784E3,2.558E3,1.954E3,6.157E3,1.677E3,3.06E2,1.663E3,1.633E3,1.51E2],"tree_param":{"num_deleted":"0","num_feature":"69","num_nodes":"15","size_leaf_vector":"1"}},{"base_weights":[-3.906153E-1,-4.2044464E-1,-3.1682423E-1,-3.729596E-1,-4.5268485E-1,-3.6863443E-1,-2.598684E-1,-1.1059033E-2,-1.2384667E-2,-1.3940876E-2,-1.2384667E-2,-9.427543E-3,-1.1059033E-2,-8.592612E-3,-3.4583332E-3],"categories":[],"categories_nodes":[],"categories_segments":[],"categories_sizes":[],"default_left":[0,0,0,0,0,0,0,0,0,0,0,0,0,0,0],"id":36,"left_children":[1,3,5,7,9,11,13,-1,-1,-1,-1,-1,-1,-1,-1],"loss_changes":[3.5198242E1,1.7214722E1,1.4151001E1,4.2349243E0,3.1315918E0,3.9162903E0,8.628235E0,0E0,0E0,0E0,0E0,0E0,0E0,0E0,0E0],"parents":[2147483647,0,0,1,1,2,2,3,3,4,4,5,5,6,6],"right_children":[2,4,6,8,10,12,14,-1,-1,-1,-1,-1,-1,-1,-1],"split_conditions":[3.4516873E0,1.1422431E0,1.299122E0,1E0,6.555881E-2,3.6E-1,1E0,0E0,0E0,0E0,0E0,0E0,0E0,0E0,0E0],"split_indices":[40,16,15,2,45,10,3,0,0,0,0,0,0,0,0],"split_type":[0,0,0,0,0,0,0,0,0,0,0,0,0,0,0],"sum_hessian":[1.612E4,1.1468E4,4.652E3,4.654E3,6.814E3,2.374E3,2.278E3,2.679E3,1.975E3,5.309E3,1.505E3,3.48E2,2.026E3,1.92E3,3.58E2],"tree_param":{"num_deleted":"0","num_feature":"69","num_nodes":"15","size_leaf_vector":"1"}},{"base_weights":[-3.9177263E-1,-4.2222032E-1,-3.1192866E-1,-3.700425E-1,-4.515698E-1,-3.670745E-1,-2.5883287E-1,-1.2324184E-2,-1.1012235E-2,-1.3891228E-2,-1.2324184E-2,-9.38861E-3,-1.1012235E-2,-8.336995E-3,-2.3265306E-3],"categories":[],"categories_nodes":[],"categories_segments":[],"categories_sizes":[],"default_left":[0,0,0,0,0,0,0,0,0,0,0,0,0,0,0],"id":37,"left_children":[1,3,5,7,9,11,13,-1,-1,-1,-1,-1,-1,-1,-1],"loss_changes":[3.9100098E1,1.760083E1,1.5551453E1,3.2393188E0,3.4404297E0,3.35495E0,8.582718E0,0E0,0E0,0E0,0E0,0E0,0E0,0E0,0E0],"parents":[2147483647,0,0,1,1,2,2,3,3,4,4,5,5,6,6],"right_children":[2,4,6,8,10,12,14,-1,-1,-1,-1,-1,-1,-1,-1],"split_conditions":[3.5571322E0,1.0745655E0,1.209798E0,1.4729334E0,6.107166E-2,3.6E-1,1E0,0E0,0E0,0E0,0E0,0E0,0E0,0E0,0E0],"split_indices":[40,16,15,40,36,10,5,0,0,0,0,0,0,0,0],"split_type":[0,0,0,0,0,0,0,0,0,0,0,0,0,0,0],"sum_hessian":[1.62E4,1.1717E4,4.483E3,4.234E3,7.483E3,1.966E3,2.517E3,1.723E3,2.511E3,5.937E3,1.546E3,3.45E2,1.621E3,2.274E3,2.43E2],"tree_param":{"num_deleted":"0","num_feature":"69","num_nodes":"15","size_leaf_vector":"1"}},{"base_weights":[-3.9042667E-1,-4.214329E-1,-3.1378645E-1,-4.4479024E-1,-3.6760968E-1,-3.560142E-1,-2.2939298E-1,-1.3698546E-2,-1.2185998E-2,-1.102829E-2,-1.2185998E-2,-8.781107E-3,-1.102829E-2,-8.647227E-3,-3.2821496E-3],"categories":[],"categories_nodes":[],"categories_segments":[],"categories_sizes":[],"default_left":[0,0,0,0,0,0,0,0,0,0,0,0,0,0,0],"id":38,"left_children":[1,3,5,7,9,11,13,-1,-1,-1,-1,-1,-1,-1,-1],"loss_changes":[3.8087646E1,1.4327148E1,1.643692E1,4.331299E0,3.7844543E0,4.9999084E0,1.0956894E1,0E0,0E0,0E0,0E0,0E0,0E0,0E0,0E0],"parents":[2147483647,0,0,1,1,2,2,3,3,4,4,5,5,6,6],"right_children":[2,4,6,8,10,12,14,-1,-1,-1,-1,-1,-1,-1,-1],"split_conditions":[3.4516873E0,3.3809572E-1,1.5756723E0,6.340794E-2,1E0,4E0,1.3415803E-1,0E0,0E0,0E0,0E0,0E0,0E0,0E0,0E0],"split_indices":[40,17,15,36,2,68,53,0,0,0,0,0,0,0,0],"split_type":[0,0,0,0,0,0,0,0,0,0,0,0,0,0,0],"sum_hessian":[1.6147E4,1.1485E4,4.662E3,8.031E3,3.454E3,3.099E3,1.563E3,6.533E3,1.498E3,2.01E3,1.444E3,6.64E2,2.435E3,1.044E3,5.19E2],"tree_param":{"num_deleted":"0","num_feature":"69","num_nodes":"15","size_leaf_vector":"1"}},{"base_weights":[-3.9019498E-1,-4.186851E-1,-3.12457E-1,-3.6557105E-1,-4.5011264E-1,-3.499657E-1,-2.3598616E-1,-1.0967132E-2,-1.2235256E-2,-1.3818428E-2,-1.2235256E-2,-8.789278E-3,-1.0967132E-2,-8.789278E-3,-3.5788382E-3],"categories":[],"categories_nodes":[],"categories_segments":[],"categories_sizes":[],"default_left":[0,0,0,0,0,0,0,0,0,0,0,0,0,0,0],"id":39,"left_children":[1,3,5,7,9,11,13,-1,-1,-1,-1,-1,-1,-1,-1],"loss_changes":[3.5606445E1,2.0277344E1,1.231839E1,4.3098145E0,3.6931152E0,4.559326E0,9.558151E0,0E0,0E0,0E0,0E0,0E0,0E0,0E0,0E0],"parents":[2147483647,0,0,1,1,2,2,3,3,4,4,5,5,6,6],"right_children":[2,4,6,8,10,12,14,-1,-1,-1,-1,-1,-1,-1,-1],"split_conditions":[3.615103E0,1.0814334E0,1.5756723E0,1E0,5.78569E-2,6.388219E-1,1.364702E-1,0E0,0E0,0E0,0E0,0E0,0E0,0E0,0E0],"split_indices":[40,16,15,2,51,16,53,0,0,0,0,0,0,0,0],"split_type":[0,0,0,0,0,0,0,0,0,0,0,0,0,0,0],"sum_hessian":[1.6204E4,1.1847E4,4.357E3,4.302E3,7.545E3,2.914E3,1.443E3,2.458E3,1.844E3,6.282E3,1.263E3,4.84E2,2.43E3,9.63E2,4.8E2],"tree_param":{"num_deleted":"0","num_feature":"69","num_nodes":"15","size_leaf_vector":"1"}},{"base_weights":[-3.894637E-1,-4.2007294E-1,-3.0974913E-1,-3.6491102E-1,-4.51351E-1,-3.6465696E-1,-2.4754788E-1,-1.094733E-2,-1.224393E-2,-1.3806122E-2,-1.224393E-2,-9.1830725E-3,-1.094733E-2,-8.043818E-3,-2.057522E-3],"categories":[],"categories_nodes":[],"categories_segments":[],"categories_sizes":[],"default_left":[0,0,0,0,0,0,0,0,0,0,0,0,0,0,0],"id":40,"left_children":[1,3,5,7,9,11,13,-1,-1,-1,-1,-1,-1,-1,-1],"loss_changes":[3.957007E1,2.002002E1,1.5335144E1,4.150696E0,2.9146729E0,3.8222961E0,7.7692413E0,0E0,0E0,0E0,0E0,0E0,0E0,0E0,0E0],"parents":[2147483647,0,0,1,1,2,2,3,3,4,4,5,5,6,6],"right_children":[2,4,6,8,10,12,14,-1,-1,-1,-1,-1,-1,-1,-1],"split_conditions":[3.5285635E0,1.0814334E0,1.3197379E0,1E0,6.082315E-2,1.66634E3,2.7861902E-1,0E0,0E0,0E0,0E0,0E0,0E0,0E0,0E0],"split_indices":[40,16,15,2,51,12,51,0,0,0,0,0,0,0,0],"split_type":[0,0,0,0,0,0,0,0,0,0,0,0,0,0,0],"sum_hessian":[1.6332E4,1.179E4,4.542E3,4.279E3,7.511E3,2.403E3,2.139E3,2.456E3,1.823E3,6.368E3,1.143E3,4.25E2,1.978E3,1.915E3,2.24E2],"tree_param":{"num_deleted":"0","num_feature":"69","num_nodes":"15","size_leaf_vector":"1"}},{"base_weights":[-3.8965964E-1,-4.1612306E-1,-3.0291876E-1,-3.595209E-1,-4.4876504E-1,-3.330062E-1,-1.7847593E-1,-1.0785627E-2,-1.2124289E-2,-1.3894188E-2,-1.2277205E-2,-7.6722316E-3,-1.0416513E-2,-7.6722316E-3,-1.8342391E-3],"categories":[],"categories_nodes":[],"categories_segments":[],"categories_sizes":[],"default_left":[0,0,0,0,0,0,0,0,0,0,0,0,0,0,0],"id":41,"left_children":[1,3,5,7,9,11,13,-1,-1,-1,-1,-1,-1,-1,-1],"loss_changes":[3.6945557E1,2.2872559E1,1.4073029E1,4.560852E0,4.09375E0,4.3354797E0,9.222189E0,0E0,0E0,0E0,0E0,0E0,0E0,0E0,0E0],"parents":[2147483647,0,0,1,1,2,2,3,3,4,4,5,5,6,6],"right_children":[2,4,6,8,10,12,14,-1,-1,-1,-1,-1,-1,-1,-1],"split_conditions":[3.8857617E0,1.0814334E0,1.8709282E0,1E0,5.282853E-2,4.5970306E-1,1.05668604E-1,0E0,0E0,0E0,0E0,0E0,0E0,0E0,0E0],"split_indices":[40,16,15,2,18,16,33,0,0,0,0,0,0,0,0],"split_type":[0,0,0,0,0,0,0,0,0,0,0,0,0,0,0],"sum_hessian":[1.6216E4,1.2415E4,3.801E3,4.522E3,7.893E3,3.055E3,7.46E2,2.603E3,1.919E3,5.763E3,2.13E3,3.44E2,2.711E3,3.8E2,3.66E2],"tree_param":{"num_deleted":"0","num_feature":"69","num_nodes":"15","size_leaf_vector":"1"}},{"base_weights":[-3.9241835E-1,-4.1165578E-1,-2.8283244E-1,-3.6630297E-1,-4.4998658E-1,-3.1881803E-1,-1.4243028E-1,-1.0417324E-2,-1.2244343E-2,-1.3918748E-2,-1.2244343E-2,-1.0327869E-2,-6.9187246E-3,-5.404157E-3,2.5352112E-3],"categories":[],"categories_nodes":[],"categories_segments":[],"categories_sizes":[],"default_left":[0,0,0,0,0,0,0,0,0,0,0,0,0,0,0],"id":42,"left_children":[1,3,5,7,9,11,13,-1,-1,-1,-1,-1,-1,-1,-1],"loss_changes":[3.3867676E1,2.3604492E1,1.2129379E1,8.185059E0,3.9710693E0,4.6082764E0,4.4962997E0,0E0,0E0,0E0,0E0,0E0,0E0,0E0,0E0],"parents":[2147483647,0,0,1,1,2,2,3,3,4,4,5,5,6,6],"right_children":[2,4,6,8,10,12,14,-1,-1,-1,-1,-1,-1,-1,-1],"split_conditions":[2.555863E-1,1.2120157E0,1.8709282E0,1E0,7E-2,2.0972311E-1,2.4123058E-1,0E0,0E0,0E0,0E0,0E0,0E0,0E0,2.705678E-2],"split_indices":[38,16,15,2,45,53,53,0,0,0,0,0,0,0,0],"split_type":[0,0,0,0,0,0,0,0,0,0,0,0,0,0,0],"sum_hessian":[1.6195E4,1.3768E4,2.427E3,6.322E3,7.446E3,1.927E3,5E2,3.567E3,2.755E3,5.561E3,1.885E3,1.523E3,4.04E2,4.31E2,6.9E1],"tree_param":{"num_deleted":"0","num_feature":"69","num_nodes":"15","size_leaf_vector":"1"}},{"base_weights":[-3.898086E-1,-4.1919407E-1,-3.130955E-1,-3.6614478E-1,-4.4954437E-1,-3.6614478E-1,-2.6467246E-1,-1.09843435E-2,-1.2235337E-2,-1.4571206E-2,-1.3101986E-2,-9.462258E-3,-1.09843435E-2,-8.378598E-3,-1.6193182E-3],"categories":[],"categories_nodes":[],"categories_segments":[],"categories_sizes":[],"default_left":[0,0,0,0,0,0,0,0,0,0,0,0,0,0,0],"id":43,"left_children":[1,3,5,7,9,11,13,-1,-1,-1,-1,-1,-1,-1,-1],"loss_changes":[3.634326E1,1.8630615E1,1.4176239E1,4.623596E0,3.0447998E0,3.6845703E0,8.003769E0,0E0,0E0,0E0,0E0,0E0,0E0,0E0,0E0],"parents":[2147483647,0,0,1,1,2,2,3,3,4,4,5,5,6,6],"right_children":[2,4,6,8,10,12,14,-1,-1,-1,-1,-1,-1,-1,-1],"split_conditions":[3.5285635E0,1.0814334E0,1.1788969E0,1E0,8.961705E-1,3.6E-1,2.4123058E-1,0E0,0E0,0E0,0E0,0E0,0E0,0E0,0E0],"split_indices":[40,16,15,2,15,10,53,0,0,0,0,0,0,0,0],"split_type":[0,0,0,0,0,0,0,0,0,0,0,0,0,0,0],"sum_hessian":[1.6247E4,1.1736E4,4.511E3,4.276E3,7.46E3,1.872E3,2.639E3,2.467E3,1.809E3,1.922E3,5.538E3,3.5E2,1.522E3,2.465E3,1.74E2],"tree_param":{"num_deleted":"0","num_feature":"69","num_nodes":"15","size_leaf_vector":"1"}},{"base_weights":[-3.9048645E-1,-4.165932E-1,-3.0368993E-1,-3.6014158E-1,-4.5273948E-1,-3.3974147E-1,-1.575798E-1,-1.0804247E-2,-1.2193215E-2,-1.3765371E-2,-1.2193215E-2,-1.0685561E-2,-7.4598184E-3,-7.4282293E-3,-1.2946428E-3],"categories":[],"categories_nodes":[],"categories_segments":[],"categories_sizes":[],"default_left":[0,0,0,0,0,0,0,0,0,0,0,0,0,0,0],"id":44,"left_children":[1,3,5,7,9,11,13,-1,-1,-1,-1,-1,-1,-1,-1],"loss_changes":[3.651587E1,2.7784668E1,1.9680542E1,4.8285522E0,2.387329E0,5.051819E0,7.7131176E0,0E0,0E0,0E0,0E0,0E0,0E0,0E0,0E0],"parents":[2147483647,0,0,1,1,2,2,3,3,4,4,5,5,6,6],"right_children":[2,4,6,8,10,12,14,-1,-1,-1,-1,-1,-1,-1,-1],"split_conditions":[1.9860984E-1,1.0814334E0,1.8574554E0,1E0,1.1242436E0,2.0972311E-1,1.292756E-1,0E0,0E0,0E0,0E0,0E0,0E0,0E0,0E0],"split_indices":[20,16,15,2,31,53,51,0,0,0,0,0,0,0,0],"split_type":[0,0,0,0,0,0,0,0,0,0,0,0,0,0,0],"sum_hessian":[1.6238E4,1.2473E4,3.765E3,4.572E3,7.901E3,3.015E3,7.5E2,2.698E3,1.874E3,7.154E3,7.47E2,2.609E3,4.06E2,4.16E2,3.34E2],"tree_param":{"num_deleted":"0","num_feature":"69","num_nodes":"15","size_leaf_vector":"1"}},{"base_weights":[-3.907737E-1,-4.2019615E-1,-3.1778207E-1,-3.689891E-1,-4.5072246E-1,-3.58594E-1,-2.3608445E-1,-1.1069673E-2,-1.2295674E-2,-1.3839933E-2,-1.2295674E-2,-9.204759E-3,-1.1069673E-2,-8.920177E-3,-3.4026464E-3],"categories":[],"categories_nodes":[],"categories_segments":[],"categories_sizes":[],"default_left":[0,0,0,0,0,0,0,0,0,0,0,0,0,0,0],"id":45,"left_children":[1,3,5,7,9,11,13,-1,-1,-1,-1,-1,-1,-1,-1],"loss_changes":[3.446338E1,1.8552734E1,1.5354462E1,3.6470947E0,3.1489258E0,5.512207E0,1.1729721E1,0E0,0E0,0E0,0E0,0E0,0E0,0E0,0E0],"parents":[2147483647,0,0,1,1,2,2,3,3,4,4,5,5,6,6],"right_children":[2,4,6,8,10,12,14,-1,-1,-1,-1,-1,-1,-1,-1],"split_conditions":[3.4516873E0,1.0814334E0,1.5756723E0,1E0,6.340794E-2,1.272674E0,1.3415803E-1,0E0,0E0,0E0,0E0,0E0,0E0,0E0,0E0],"split_indices":[40,16,15,2,36,16,53,0,0,0,0,0,0,0,0],"split_type":[0,0,0,0,0,0,0,0,0,0,0,0,0,0,0],"sum_hessian":[1.618E4,1.152E4,4.66E3,4.186E3,7.334E3,3.099E3,1.561E3,2.434E3,1.752E3,5.933E3,1.401E3,1.595E3,1.504E3,1.034E3,5.27E2],"tree_param":{"num_deleted":"0","num_feature":"69","num_nodes":"15","size_leaf_vector":"1"}},{"base_weights":[-3.9092302E-1,-4.1736168E-1,-3.046651E-1,-4.4288173E-1,-3.6101338E-1,-3.343568E-1,-1.7986578E-1,-1.3647162E-2,-1.2058427E-2,-1.0830401E-2,-1.2058427E-2,-1.0478763E-2,-7.7133393E-3,-7.39011E-3,-0E0],"categories":[],"categories_nodes":[],"categories_segments":[],"categories_sizes":[],"default_left":[0,0,0,0,0,0,0,0,0,0,0,0,0,0,0],"id":46,"left_children":[1,3,5,7,9,11,13,-1,-1,-1,-1,-1,-1,-1,-1],"loss_changes":[3.6900146E1,1.854956E1,1.4050201E1,4.218628E0,3.9856873E0,4.227997E0,9.096779E0,0E0,0E0,0E0,0E0,0E0,0E0,0E0,0E0],"parents":[2147483647,0,0,1,1,2,2,3,3,4,4,5,5,6,6],"right_children":[2,4,6,8,10,12,14,-1,-1,-1,-1,-1,-1,-1,-1],"split_conditions":[3.8857617E0,3.3809572E-1,1.8709282E0,6.340794E-2,1E0,2.1679886E-1,2.2124972E0,0E0,0E0,0E0,0E0,0E0,0E0,0E0,2.2961877E-2],"split_indices":[40,17,15,36,2,35,31,0,0,0,0,0,0,0,0],"split_type":[0,0,0,0,0,0,0,0,0,0,0,0,0,0,0],"sum_hessian":[1.6303E4,1.2468E4,3.835E3,8.708E3,3.76E3,3.092E3,7.43E2,6.817E3,1.891E3,2.16E3,1.6E3,2.682E3,4.1E2,5.44E2,1.99E2],"tree_param":{"num_deleted":"0","num_feature":"69","num_nodes":"15","size_leaf_vector":"1"}},{"base_weights":[-3.8986552E-1,-4.1704828E-1,-2.9970798E-1,-3.583781E-1,-4.4557703E-1,-3.3223793E-1,-1.6184573E-1,-1.0751343E-2,-1.2059327E-2,-1.4255836E-2,-1.2843007E-2,-1.0513751E-2,-7.4112546E-3,-7.4112546E-3,-4.3636363E-4],"categories":[],"categories_nodes":[],"categories_segments":[],"categories_sizes":[],"default_left":[0,0,0,0,0,0,0,0,0,0,0,0,0,0,0],"id":47,"left_children":[1,3,5,7,9,11,13,-1,-1,-1,-1,-1,-1,-1,-1],"loss_changes":[3.9450195E1,2.0706055E1,1.6733429E1,5.3424683E0,3.94104E0,5.80838E0,9.326067E0,0E0,0E0,0E0,0E0,0E0,0E0,0E0,0E0],"parents":[2147483647,0,0,1,1,2,2,3,3,4,4,5,5,6,6],"right_children":[2,4,6,8,10,12,14,-1,-1,-1,-1,-1,-1,-1,-1],"split_conditions":[3.8857617E0,1.0282115E0,1.8709282E0,1E0,7.617749E-3,2.0972311E-1,1.3415803E-1,0E0,0E0,0E0,0E0,0E0,0E0,0E0,0E0],"split_indices":[40,16,15,2,18,53,53,0,0,0,0,0,0,0,0],"split_type":[0,0,0,0,0,0,0,0,0,0,0,0,0,0,0],"sum_hessian":[1.621E4,1.2445E4,3.765E3,4.059E3,8.386E3,3.041E3,7.24E2,2.34E3,1.719E3,3.082E3,5.304E3,2.616E3,4.25E2,4.51E2,2.73E2],"tree_param":{"num_deleted":"0","num_feature":"69","num_nodes":"15","size_leaf_vector":"1"}},{"base_weights":[-3.890093E-1,-4.1647077E-1,-2.9986894E-1,-3.6032838E-1,-4.4860828E-1,-3.1816804E-1,-1.8173076E-1,-1.0745095E-2,-1.213405E-2,-1.378848E-2,-1.213405E-2,-8.673323E-3,-1.0745095E-2,-7.4180323E-3,-6.7307695E-4],"categories":[],"categories_nodes":[],"categories_segments":[],"categories_sizes":[],"default_left":[0,0,0,0,0,0,0,0,0,0,0,0,0,0,0],"id":48,"left_children":[1,3,5,7,9,11,13,-1,-1,-1,-1,-1,-1,-1,-1],"loss_changes":[3.925293E1,2.1924316E1,8.081757E0,5.6624146E0,3.590332E0,4.468231E0,5.370674E0,0E0,0E0,0E0,0E0,0E0,0E0,0E0,0E0],"parents":[2147483647,0,0,1,1,2,2,3,3,4,4,5,5,6,6],"right_children":[2,4,6,8,10,12,14,-1,-1,-1,-1,-1,-1,-1,-1],"split_conditions":[3.8857617E0,1.0814334E0,2.0972311E-1,1E0,6.898388E-2,1.4174254E0,1.9062895E0,0E0,0E0,0E0,0E0,0E0,0E0,0E0,0E0],"split_indices":[40,16,53,2,36,16,29,0,0,0,0,0,0,0,0],"split_type":[0,0,0,0,0,0,0,0,0,0,0,0,0,0,0],"sum_hessian":[1.6148E4,1.2335E4,3.813E3,4.505E3,7.83E3,3.295E3,5.18E2,2.576E3,1.929E3,6.3E3,1.53E3,2.101E3,1.194E3,3.64E2,1.54E2],"tree_param":{"num_deleted":"0","num_feature":"69","num_nodes":"15","size_leaf_vector":"1"}},{"base_weights":[-3.8897443E-1,-4.1436464E-1,-3.040288E-1,-4.4471672E-1,-3.5919672E-1,-3.576738E-1,-2.1941216E-1,-1.2058702E-2,-1.3571524E-2,-1.0775901E-2,-1.2058702E-2,-8.656289E-3,-1.0775901E-2,-8.323798E-3,-3.959391E-3],"categories":[],"categories_nodes":[],"categories_segments":[],"categories_sizes":[],"default_left":[0,0,0,0,0,0,0,0,0,0,0,0,0,0,0],"id":49,"left_children":[1,3,5,7,9,11,13,-1,-1,-1,-1,-1,-1,-1,-1],"loss_changes":[3.47334E1,2.2948242E1,1.684076E1,3.3200684E0,5.62146E0,3.541687E0,7.337181E0,0E0,0E0,0E0,0E0,0E0,0E0,0E0,0E0],"parents":[2147483647,0,0,1,1,2,2,3,3,4,4,5,5,6,6],"right_children":[2,4,6,8,10,12,14,-1,-1,-1,-1,-1,-1,-1,-1],"split_conditions":[1.9860984E-1,3.2473946E-1,1.4591407E0,5.565726E-1,1E0,3.6E-1,1.3415803E-1,0E0,0E0,0E0,0E0,0E0,0E0,0E0,0E0],"split_indices":[20,17,15,10,2,10,53,0,0,0,0,0,0,0,0],"split_type":[0,0,0,0,0,0,0,0,0,0,0,0,0,0,0],"sum_hessian":[1.6233E4,1.2487E4,3.746E3,8.364E3,4.123E3,2.285E3,1.461E3,9.21E2,7.443E3,2.444E3,1.679E3,2.71E2,2.014E3,8.72E2,5.89E2],"tree_param":{"num_deleted":"0","num_feature":"69","num_nodes":"15","size_leaf_vector":"1"}},{"base_weights":[-3.8925472E-1,-4.137862E-1,-3.0722088E-1,-4.45003E-1,-3.6050355E-1,-3.245912E-1,-1.9552529E-1,-1.4065483E-2,-1.2752454E-2,-1.0815106E-2,-1.2082598E-2,-1.0136559E-2,-8.183824E-3,-7.736389E-3,-1.796407E-3],"categories":[],"categories_nodes":[],"categories_segments":[],"categories_sizes":[],"default_left":[0,0,0,0,0,0,0,0,0,0,0,0,0,0,0],"id":50,"left_children":[1,3,5,7,9,11,13,-1,-1,-1,-1,-1,-1,-1,-1],"loss_changes":[3.2416992E1,2.3944824E1,7.107483E0,3.5725098E0,4.3981323E0,2.0281372E0,4.279915E0,0E0,0E0,0E0,0E0,0E0,0E0,0E0,0E0],"parents":[2147483647,0,0,1,1,2,2,3,3,4,4,5,5,6,6],"right_children":[2,4,6,8,10,12,14,-1,-1,-1,-1,-1,-1,-1,-1],"split_conditions":[1.9860984E-1,3.2473946E-1,2.0972311E-1,4.2400606E-2,1E0,1E0,1.7926801E0,0E0,0E0,0E0,0E0,0E0,0E0,0E0,0E0],"split_indices":[20,17,53,38,2,3,29,0,0,0,0,0,0,0,0],"split_type":[0,0,0,0,0,0,0,0,0,0,0,0,0,0,0],"sum_hessian":[1.6247E4,1.2496E4,3.751E3,8.353E3,4.143E3,3.239E3,5.12E2,3.77E3,4.583E3,2.429E3,1.714E3,2.561E3,6.78E2,3.47E2,1.65E2],"tree_param":{"num_deleted":"0","num_feature":"69","num_nodes":"15","size_leaf_vector":"1"}},{"base_weights":[-3.8937807E-1,-4.1089514E-1,-2.8624734E-1,-3.6119235E-1,-4.5277703E-1,-3.4857124E-1,-1.8647912E-1,-1.2146261E-2,-1.0457137E-2,-1.385721E-2,-1.220954E-2,-8.025756E-3,-1.0457137E-2,-6.3608564E-3,4.8780485E-4],"categories":[],"categories_nodes":[],"categories_segments":[],"categories_sizes":[],"default_left":[0,0,0,0,0,0,0,0,0,0,0,0,0,0,0],"id":51,"left_children":[1,3,5,7,9,11,13,-1,-1,-1,-1,-1,-1,-1,-1],"loss_changes":[3.576123E1,2.7621582E1,1.768068E1,7.4682007E0,3.6275635E0,4.7135468E0,5.854805E0,0E0,0E0,0E0,0E0,0E0,0E0,0E0,0E0],"parents":[2147483647,0,0,1,1,2,2,3,3,4,4,5,5,6,6],"right_children":[2,4,6,8,10,12,14,-1,-1,-1,-1,-1,-1,-1,-1],"split_conditions":[2.466665E-1,1.2120157E0,1.4591407E0,5.9E1,1.1242436E0,3.5365292E-1,2.4123058E-1,0E0,0E0,0E0,0E0,0E0,0E0,0E0,2.3072228E-2],"split_indices":[20,16,15,7,31,16,53,0,0,0,0,0,0,0,0],"split_type":[0,0,0,0,0,0,0,0,0,0,0,0,0,0,0],"sum_hessian":[1.6238E4,1.3426E4,2.812E3,6.154E3,7.272E3,1.712E3,1.1E3,2.726E3,3.428E3,6.364E3,9.08E2,2.19E2,1.493E3,9.79E2,1.21E2],"tree_param":{"num_deleted":"0","num_feature":"69","num_nodes":"15","size_leaf_vector":"1"}},{"base_weights":[-3.885848E-1,-4.192969E-1,-3.097374E-1,-3.645199E-1,-4.5062643E-1,-3.288144E-1,-1.5728155E-1,-1.0935514E-2,-1.2227194E-2,-1.3867207E-2,-1.2227194E-2,-8.853232E-3,-1.0935514E-2,-6.626984E-3,4.3165468E-4],"categories":[],"categories_nodes":[],"categories_segments":[],"categories_sizes":[],"default_left":[0,0,0,0,0,0,0,0,0,0,0,0,0,0,0],"id":52,"left_children":[1,3,5,7,9,11,13,-1,-1,-1,-1,-1,-1,-1,-1],"loss_changes":[3.9088623E1,1.97229E1,1.3121307E1,4.135132E0,3.6091309E0,5.2628784E0,5.8120813E0,0E0,0E0,0E0,0E0,0E0,0E0,0E0,0E0],"parents":[2147483647,0,0,1,1,2,2,3,3,4,4,5,5,6,6],"right_children":[2,4,6,8,10,12,14,-1,-1,-1,-1,-1,-1,-1,-1],"split_conditions":[3.5038977E0,1.0814334E0,2.0972311E-1,1E0,6.107166E-2,1.2636193E0,1.9926077E0,0E0,0E0,0E0,0E0,0E0,0E0,0E0,2.3981415E-2],"split_indices":[40,16,53,2,36,16,29,0,0,0,0,0,0,0,0],"split_type":[0,0,0,0,0,0,0,0,0,0,0,0,0,0,0],"sum_hessian":[1.6257E4,1.1689E4,4.568E3,4.268E3,7.421E3,4.055E3,5.13E2,2.435E3,1.833E3,5.917E3,1.504E3,2.226E3,1.829E3,3.76E2,1.37E2],"tree_param":{"num_deleted":"0","num_feature":"69","num_nodes":"15","size_leaf_vector":"1"}},{"base_weights":[-3.885083E-1,-4.1539267E-1,-2.9970875E-1,-3.575507E-1,-4.4927907E-1,-3.1830728E-1,-1.8050194E-1,-1.0726521E-2,-1.21024465E-2,-1.3954292E-2,-1.2520896E-2,-8.658595E-3,-1.0726521E-2,-0E0,-6.4041098E-3],"categories":[],"categories_nodes":[],"categories_segments":[],"categories_sizes":[],"default_left":[0,0,0,0,0,0,0,0,0,0,0,0,0,0,0],"id":53,"left_children":[1,3,5,7,9,11,13,-1,-1,-1,-1,-1,-1,-1,-1],"loss_changes":[3.8401855E1,2.4138916E1,8.208649E0,5.375061E0,3.5715332E0,4.504303E0,3.115511E0,0E0,0E0,0E0,0E0,0E0,0E0,0E0,0E0],"parents":[2147483647,0,0,1,1,2,2,3,3,4,4,5,5,6,6],"right_children":[2,4,6,8,10,12,14,-1,-1,-1,-1,-1,-1,-1,-1],"split_conditions":[3.8857617E0,1.0814334E0,2.0972311E-1,1E0,4.0267106E-2,1.4174254E0,3E-1,0E0,0E0,0E0,0E0,0E0,0E0,1.1630986E-2,0E0],"split_indices":[40,16,53,2,18,16,55,0,0,0,0,0,0,0,0],"split_type":[0,0,0,0,0,0,0,0,0,0,0,0,0,0,0],"sum_hessian":[1.6201E4,1.2426E4,3.775E3,4.591E3,7.835E3,3.259E3,5.16E2,2.657E3,1.934E3,5.205E3,2.63E3,2.063E3,1.196E3,8E1,4.36E2],"tree_param":{"num_deleted":"0","num_feature":"69","num_nodes":"15","size_leaf_vector":"1"}},{"base_weights":[-3.9025676E-1,-4.1914663E-1,-3.0783895E-1,-3.6537135E-1,-4.4981536E-1,-3.481081E-1,-2.2858146E-1,-1.0904783E-2,-1.2227801E-2,-1.381723E-2,-1.2227801E-2,-8.650344E-3,-1.0904783E-2,-8.604144E-3,-3.6542239E-3],"categories":[],"categories_nodes":[],"categories_segments":[],"categories_sizes":[],"default_left":[0,0,0,0,0,0,0,0,0,0,0,0,0,0,0],"id":54,"left_children":[1,3,5,7,9,11,13,-1,-1,-1,-1,-1,-1,-1,-1],"loss_changes":[3.8106934E1,1.9333252E1,1.3216644E1,5.39624E0,3.0714111E0,4.416626E0,8.758507E0,0E0,0E0,0E0,0E0,0E0,0E0,0E0,0E0],"parents":[2147483647,0,0,1,1,2,2,3,3,4,4,5,5,6,6],"right_children":[2,4,6,8,10,12,14,-1,-1,-1,-1,-1,-1,-1,-1],"split_conditions":[3.674506E0,1.0814334E0,1.5756723E0,1E0,6.69758E-2,5.200398E-1,1.3415803E-1,0E0,0E0,0E0,0E0,0E0,0E0,0E0,0E0],"split_indices":[40,16,15,2,18,16,53,0,0,0,0,0,0,0,0],"split_type":[0,0,0,0,0,0,0,0,0,0,0,0,0,0,0],"sum_hessian":[1.6122E4,1.1927E4,4.195E3,4.347E3,7.58E3,2.773E3,1.422E3,2.511E3,1.836E3,6.022E3,1.558E3,3.92E2,2.381E3,9.15E2,5.07E2],"tree_param":{"num_deleted":"0","num_feature":"69","num_nodes":"15","size_leaf_vector":"1"}},{"base_weights":[-3.889607E-1,-4.150793E-1,-3.0018887E-1,-3.5763407E-1,-4.5072114E-1,-3.552977E-1,-2.1102528E-1,-1.0729021E-2,-1.2125328E-2,-1.4248681E-2,-1.2959706E-2,-8.494845E-3,-1.0729021E-2,-7.019084E-3,1.4224137E-3],"categories":[],"categories_nodes":[],"categories_segments":[],"categories_sizes":[],"default_left":[0,0,0,0,0,0,0,0,0,0,0,0,0,0,0],"id":55,"left_children":[1,3,5,7,9,11,13,-1,-1,-1,-1,-1,-1,-1,-1],"loss_changes":[3.7398926E1,2.6865234E1,1.8043213E1,5.519287E0,3.1802979E0,5.392914E0,8.629681E0,0E0,0E0,0E0,0E0,0E0,0E0,0E0,0E0],"parents":[2147483647,0,0,1,1,2,2,3,3,4,4,5,5,6,6],"right_children":[2,4,6,8,10,12,14,-1,-1,-1,-1,-1,-1,-1,-1],"split_conditions":[1.9860984E-1,1.0814334E0,1.4591407E0,1E0,1.9218686E-1,3.6E-1,2.4123058E-1,0E0,0E0,0E0,0E0,0E0,0E0,0E0,2.4641767E-2],"split_indices":[20,16,15,2,17,10,53,0,0,0,0,0,0,0,0],"split_type":[0,0,0,0,0,0,0,0,0,0,0,0,0,0,0],"sum_hessian":[1.6249E4,1.2545E4,3.704E3,4.643E3,7.902E3,2.282E3,1.422E3,2.747E3,1.896E3,3.412E3,4.49E3,2.82E2,2E3,1.308E3,1.14E2],"tree_param":{"num_deleted":"0","num_feature":"69","num_nodes":"15","size_leaf_vector":"1"}},{"base_weights":[-3.8825384E-1,-4.151562E-1,-3.0107105E-1,-3.5926825E-1,-4.473987E-1,-3.512786E-1,-2.3048095E-1,-1.0743408E-2,-1.2100005E-2,-1.3786819E-2,-1.2100005E-2,-8.726394E-3,-1.0743408E-2,-7.899474E-3,-1.9444444E-3],"categories":[],"categories_nodes":[],"categories_segments":[],"categories_sizes":[],"default_left":[0,0,0,0,0,0,0,0,0,0,0,0,0,0,0],"id":56,"left_children":[1,3,5,7,9,11,13,-1,-1,-1,-1,-1,-1,-1,-1],"loss_changes":[3.7678467E1,2.1935059E1,1.3394897E1,6.209961E0,3.9239502E0,4.8451843E0,8.608292E0,0E0,0E0,0E0,0E0,0E0,0E0,0E0,0E0],"parents":[2147483647,0,0,1,1,2,2,3,3,4,4,5,5,6,6],"right_children":[2,4,6,8,10,12,14,-1,-1,-1,-1,-1,-1,-1,-1],"split_conditions":[3.8857617E0,1.0814334E0,1.4030868E0,1E0,5.0055947E-2,3.6E-1,1E0,0E0,0E0,0E0,0E0,0E0,0E0,0E0,0E0],"split_indices":[40,16,15,2,51,10,3,0,0,0,0,0,0,0,0],"split_type":[0,0,0,0,0,0,0,0,0,0,0,0,0,0,0],"sum_hessian":[1.6182E4,1.2356E4,3.826E3,4.535E3,7.821E3,2.227E3,1.599E3,2.629E3,1.906E3,6.143E3,1.678E3,3.19E2,1.908E3,1.331E3,2.68E2],"tree_param":{"num_deleted":"0","num_feature":"69","num_nodes":"15","size_leaf_vector":"1"}},{"base_weights":[-3.8914686E-1,-4.201589E-1,-3.1329787E-1,-3.772553E-1,-4.5573166E-1,-3.5854653E-1,-2.5187033E-1,-1.2370355E-2,-1.10018505E-2,-1.4038953E-2,-1.25322575E-2,-9.156253E-3,-1.10018505E-2,-8.93821E-3,-4.257095E-3],"categories":[],"categories_nodes":[],"categories_segments":[],"categories_sizes":[],"default_left":[0,0,0,0,0,0,0,0,0,0,0,0,0,0,0],"id":57,"left_children":[1,3,5,7,9,11,13,-1,-1,-1,-1,-1,-1,-1,-1],"loss_changes":[3.770752E1,1.7133545E1,1.2875E1,4.565857E0,2.4990234E0,5.882538E0,1.0041199E1,0E0,0E0,0E0,0E0,0E0,0E0,0E0,0E0],"parents":[2147483647,0,0,1,1,2,2,3,3,4,4,5,5,6,6],"right_children":[2,4,6,8,10,12,14,-1,-1,-1,-1,-1,-1,-1,-1],"split_conditions":[3.4516873E0,1.2120157E0,1.3921213E0,5.9E1,4.1009195E-2,6.278016E-1,1.4398792E-1,0E0,0E0,0E0,0E0,0E0,0E0,0E0,0E0],"split_indices":[40,16,15,7,33,16,35,0,0,0,0,0,0,0,0],"split_type":[0,0,0,0,0,0,0,0,0,0,0,0,0,0,0],"sum_hessian":[1.615E4,1.1452E4,4.698E3,5.208E3,6.244E3,2.695E3,2.003E3,2.582E3,2.626E3,4.696E3,1.548E3,4.65E2,2.23E3,1.406E3,5.97E2],"tree_param":{"num_deleted":"0","num_feature":"69","num_nodes":"15","size_leaf_vector":"1"}},{"base_weights":[-3.8998958E-1,-4.1985717E-1,-3.1557027E-1,-3.685708E-1,-4.5287699E-1,-3.539055E-1,-2.390337E-1,-1.1031412E-2,-1.2321716E-2,-1.4168897E-2,-1.2918422E-2,-8.894088E-3,-1.1031412E-2,-8.198064E-3,-1.0991379E-3],"categories":[],"categories_nodes":[],"categories_segments":[],"categories_sizes":[],"default_left":[0,0,0,0,0,0,0,0,0,0,0,0,0,0,0],"id":58,"left_children":[1,3,5,7,9,11,13,-1,-1,-1,-1,-1,-1,-1,-1],"loss_changes":[3.594995E1,1.9340088E1,1.354892E1,5.0994873E0,2.642334E0,6.2266235E0,1.079528E1,0E0,0E0,0E0,0E0,0E0,0E0,0E0,0E0],"parents":[2147483647,0,0,1,1,2,2,3,3,4,4,5,5,6,6],"right_children":[2,4,6,8,10,12,14,-1,-1,-1,-1,-1,-1,-1,-1],"split_conditions":[3.478474E0,1.1245E0,1.5756723E0,1E0,1.2313361E0,1.0814334E0,1E0,0E0,0E0,0E0,0E0,0E0,0E0,0E0,0E0],"split_indices":[40,16,15,2,15,16,3,0,0,0,0,0,0,0,0],"split_type":[0,0,0,0,0,0,0,0,0,0,0,0,0,0,0],"sum_hessian":[1.6301E4,1.1621E4,4.68E3,4.567E3,7.054E3,3.109E3,1.571E3,2.642E3,1.925E3,3.734E3,3.32E3,1.209E3,1.9E3,1.341E3,2.3E2],"tree_param":{"num_deleted":"0","num_feature":"69","num_nodes":"15","size_leaf_vector":"1"}},{"base_weights":[-3.8907E-1,-4.1730922E-1,-2.964567E-1,-3.597628E-1,-4.5031017E-1,-3.4543568E-1,-2.114836E-1,-1.0706489E-2,-1.2151094E-2,-1.3968749E-2,-1.2567721E-2,-8.353789E-3,-1.0706489E-2,-7.366185E-3,-9.2511013E-4],"categories":[],"categories_nodes":[],"categories_segments":[],"categories_sizes":[],"default_left":[0,0,0,0,0,0,0,0,0,0,0,0,0,0,0],"id":59,"left_children":[1,3,5,7,9,11,13,-1,-1,-1,-1,-1,-1,-1,-1],"loss_changes":[4.2240234E1,2.3307617E1,1.56927185E1,6.022888E0,3.3986816E0,5.106964E0,8.536793E0,0E0,0E0,0E0,0E0,0E0,0E0,0E0,0E0],"parents":[2147483647,0,0,1,1,2,2,3,3,4,4,5,5,6,6],"right_children":[2,4,6,8,10,12,14,-1,-1,-1,-1,-1,-1,-1,-1],"split_conditions":[3.8857617E0,1.0814334E0,1.5264602E0,1E0,4.1337E-2,3.5365292E-1,1E0,0E0,0E0,0E0,0E0,0E0,0E0,0E0,0E0],"split_indices":[40,16,15,2,18,16,3,0,0,0,0,0,0,0,0],"split_type":[0,0,0,0,0,0,0,0,0,0,0,0,0,0,0],"sum_hessian":[1.6256E4,1.2448E4,3.808E3,4.551E3,7.897E3,2.408E3,1.4E3,2.599E3,1.952E3,5.278E3,2.619E3,2.88E2,2.12E3,1.175E3,2.25E2],"tree_param":{"num_deleted":"0","num_feature":"69","num_nodes":"15","size_leaf_vector":"1"}},{"base_weights":[-3.8950464E-1,-4.1155967E-1,-2.9615882E-1,-3.591179E-1,-4.5454547E-1,-3.4390363E-1,-2.0403378E-1,-1.220495E-2,-1.0615777E-2,-1.38924895E-2,-1.220495E-2,-8.2190605E-3,-1.0615777E-2,-6.9266525E-3,1.65E-3],"categories":[],"categories_nodes":[],"categories_segments":[],"categories_sizes":[],"default_left":[0,0,0,0,0,0,0,0,0,0,0,0,0,0,0],"id":60,"left_children":[1,3,5,7,9,11,13,-1,-1,-1,-1,-1,-1,-1,-1],"loss_changes":[3.296924E1,2.9095947E1,1.3463989E1,7.428406E0,3.3883057E0,5.352051E0,7.6105766E0,0E0,0E0,0E0,0E0,0E0,0E0,0E0,0E0],"parents":[2147483647,0,0,1,1,2,2,3,3,4,4,5,5,6,6],"right_children":[2,4,6,8,10,12,14,-1,-1,-1,-1,-1,-1,-1,-1],"split_conditions":[2.1855563E-1,1.2017027E0,1.5756723E0,5.9E1,1.1242436E0,9.130435E-1,5.186742E-1,0E0,0E0,0E0,0E0,0E0,0E0,0E0,2.3282042E-2],"split_indices":[38,16,15,7,31,55,18,0,0,0,0,0,0,0,0],"split_type":[0,0,0,0,0,0,0,0,0,0,0,0,0,0,0],"sum_hessian":[1.6148E4,1.3052E4,3.096E3,5.893E3,7.159E3,2.032E3,1.064E3,2.581E3,3.312E3,6.323E3,8.36E2,4.05E2,1.627E3,9.66E2,9.8E1],"tree_param":{"num_deleted":"0","num_feature":"69","num_nodes":"15","size_leaf_vector":"1"}},{"base_weights":[-3.8912454E-1,-4.2049834E-1,-3.0899978E-1,-3.6703503E-1,-4.5092893E-1,-3.2656327E-1,-1.7202269E-1,-1.0942472E-2,-1.2269459E-2,-1.3890152E-2,-1.2294221E-2,-8.556818E-3,-1.0942472E-2,-6.4682537E-3,-1.7647059E-3],"categories":[],"categories_nodes":[],"categories_segments":[],"categories_sizes":[],"default_left":[0,0,0,0,0,0,0,0,0,0,0,0,0,0,0],"id":61,"left_children":[1,3,5,7,9,11,13,-1,-1,-1,-1,-1,-1,-1,-1],"loss_changes":[4.0605225E1,1.8658203E1,1.0868103E1,5.0440674E0,3.2945557E0,7.6817017E0,2.5498447E0,0E0,0E0,0E0,0E0,0E0,0E0,0E0,0E0],"parents":[2147483647,0,0,1,1,2,2,3,3,4,4,5,5,6,6],"right_children":[2,4,6,8,10,12,14,-1,-1,-1,-1,-1,-1,-1,-1],"split_conditions":[3.5038977E0,1.0814334E0,2.0972311E-1,1E0,4.4354532E-2,1.2636193E0,2.8221466E1,0E0,0E0,0E0,0E0,0E0,0E0,0E0,0E0],"split_indices":[40,16,53,2,33,16,39,0,0,0,0,0,0,0,0],"split_type":[0,0,0,0,0,0,0,0,0,0,0,0,0,0,0],"sum_hessian":[1.6264E4,1.1677E4,4.587E3,4.251E3,7.426E3,4.06E3,5.27E2,2.456E3,1.795E3,5.715E3,1.711E3,2.198E3,1.862E3,3.76E2,1.51E2],"tree_param":{"num_deleted":"0","num_feature":"69","num_nodes":"15","size_leaf_vector":"1"}},{"base_weights":[-3.8952163E-1,-4.0995932E-1,-2.7551433E-1,-3.603011E-1,-4.5179674E-1,-3.1574923E-1,-1.2138728E-1,-1.2181467E-2,-1.0282105E-2,-1.389551E-2,-1.2181467E-2,-1.0163985E-2,-6.5570474E-3,-4.8749996E-3,2.962963E-3],"categories":[],"categories_nodes":[],"categories_segments":[],"categories_sizes":[],"default_left":[0,0,0,0,0,0,0,0,0,0,0,0,0,0,0],"id":62,"left_children":[1,3,5,7,9,11,13,-1,-1,-1,-1,-1,-1,-1,-1],"loss_changes":[3.7574463E1,2.8270508E1,1.523941E1,8.997498E0,4.067383E0,4.758255E0,4.9013534E0,0E0,0E0,0E0,0E0,0E0,0E0,0E0,0E0],"parents":[2147483647,0,0,1,1,2,2,3,3,4,4,5,5,6,6],"right_children":[2,4,6,8,10,12,14,-1,-1,-1,-1,-1,-1,-1,-1],"split_conditions":[2.555863E-1,1.2120157E0,1.8709282E0,7.338761E0,2.0663683E0,-9.52381E-3,6.2421906E-1,0E0,0E0,0E0,0E0,0E0,0E0,0E0,4.94237E-2],"split_indices":[38,16,15,39,30,60,20,0,0,0,0,0,0,0,0],"split_type":[0,0,0,0,0,0,0,0,0,0,0,0,0,0,0],"sum_hessian":[1.6241E4,1.3764E4,2.477E3,6.308E3,7.456E3,1.96E3,5.17E2,2.549E3,3.759E3,6.123E3,1.333E3,1.614E3,3.46E2,4.38E2,7.9E1],"tree_param":{"num_deleted":"0","num_feature":"69","num_nodes":"15","size_leaf_vector":"1"}},{"base_weights":[-3.8922063E-1,-4.1495588E-1,-3.03893E-1,-3.5942444E-1,-4.482256E-1,-3.5128102E-1,-2.1054688E-1,-1.0782733E-2,-1.211475E-2,-1.4195957E-2,-1.2866234E-2,-8.427418E-3,-1.0782733E-2,-8.376359E-3,-3.489011E-3],"categories":[],"categories_nodes":[],"categories_segments":[],"categories_sizes":[],"default_left":[0,0,0,0,0,0,0,0,0,0,0,0,0,0,0],"id":63,"left_children":[1,3,5,7,9,11,13,-1,-1,-1,-1,-1,-1,-1,-1],"loss_changes":[3.5388916E1,2.353833E1,1.6532196E1,5.751343E0,3.409668E0,5.1875305E0,8.205719E0,0E0,0E0,0E0,0E0,0E0,0E0,0E0,0E0],"parents":[2147483647,0,0,1,1,2,2,3,3,4,4,5,5,6,6],"right_children":[2,4,6,8,10,12,14,-1,-1,-1,-1,-1,-1,-1,-1],"split_conditions":[1.88764E-1,1.0814334E0,1.5756723E0,1E0,1.3207258E-2,1E0,1.3415803E-1,0E0,0E0,0E0,0E0,0E0,0E0,0E0,0E0],"split_indices":[38,16,15,2,18,68,53,0,0,0,0,0,0,0,0],"split_type":[0,0,0,0,0,0,0,0,0,0,0,0,0,0,0],"sum_hessian":[1.6242E4,1.2468E4,3.774E3,4.58E3,7.888E3,2.496E3,1.278E3,2.684E3,1.896E3,3.412E3,4.476E3,3.89E2,2.107E3,7.34E2,5.44E2],"tree_param":{"num_deleted":"0","num_feature":"69","num_nodes":"15","size_leaf_vector":"1"}},{"base_weights":[-3.9095795E-1,-4.222755E-1,-3.1463054E-1,-3.6916235E-1,-4.5104378E-1,-3.3143264E-1,-1.7538759E-1,-1.105359E-2,-1.23030925E-2,-1.3935413E-2,-1.2371532E-2,-8.625163E-3,-1.105359E-2,-7.602303E-3,-3.3644857E-3],"categories":[],"categories_nodes":[],"categories_segments":[],"categories_sizes":[],"default_left":[0,0,0,0,0,0,0,0,0,0,0,0,0,0,0],"id":64,"left_children":[1,3,5,7,9,11,13,-1,-1,-1,-1,-1,-1,-1,-1],"loss_changes":[3.8414795E1,1.718042E1,1.0872314E1,5.3251953E0,3.4708252E0,9.0720825E0,3.0725803E0,0E0,0E0,0E0,0E0,0E0,0E0,0E0,0E0],"parents":[2147483647,0,0,1,1,2,2,3,3,4,4,5,5,6,6],"right_children":[2,4,6,8,10,12,14,-1,-1,-1,-1,-1,-1,-1,-1],"split_conditions":[3.4516873E0,1.0630705E0,2.0972311E-1,1E0,5.85965E-2,1.2636193E0,8.6E1,0E0,0E0,0E0,0E0,0E0,0E0,0E0,0E0],"split_indices":[40,16,53,2,27,16,8,0,0,0,0,0,0,0,0],"split_type":[0,0,0,0,0,0,0,0,0,0,0,0,0,0,0],"sum_hessian":[1.6189E4,1.1468E4,4.721E3,4.045E3,7.423E3,4.207E3,5.14E2,2.329E3,1.716E3,5.479E3,1.944E3,2.311E3,1.896E3,1.95E2,3.19E2],"tree_param":{"num_deleted":"0","num_feature":"69","num_nodes":"15","size_leaf_vector":"1"}},{"base_weights":[-3.8824505E-1,-4.1866007E-1,-3.0443272E-1,-3.693218E-1,-4.5079586E-1,-3.485007E-1,-2.1875E-1,-1.0846391E-2,-1.2301764E-2,-1.3986006E-2,-1.2415235E-2,-8.5087605E-3,-1.0846391E-2,-8.458762E-3,-2.9711537E-3],"categories":[],"categories_nodes":[],"categories_segments":[],"categories_sizes":[],"default_left":[0,0,0,0,0,0,0,0,0,0,0,0,0,0,0],"id":65,"left_children":[1,3,5,7,9,11,13,-1,-1,-1,-1,-1,-1,-1,-1],"loss_changes":[4.1289795E1,1.8615234E1,1.6266846E1,4.9660645E0,3.7164307E0,4.703247E0,1.1175316E1,0E0,0E0,0E0,0E0,0E0,0E0,0E0,0E0],"parents":[2147483647,0,0,1,1,2,2,3,3,4,4,5,5,6,6],"right_children":[2,4,6,8,10,12,14,-1,-1,-1,-1,-1,-1,-1,-1],"split_conditions":[3.615103E0,1.1308846E0,1.5756723E0,1E0,3.4134682E-2,6.388219E-1,1.3415803E-1,0E0,0E0,0E0,0E0,0E0,0E0,0E0,0E0],"split_indices":[40,16,15,2,33,16,53,0,0,0,0,0,0,0,0],"split_type":[0,0,0,0,0,0,0,0,0,0,0,0,0,0,0],"sum_hessian":[1.6306E4,1.1954E4,4.352E3,4.731E3,7.223E3,2.866E3,1.486E3,2.711E3,2.02E3,5.072E3,2.151E3,4.72E2,2.394E3,9.68E2,5.18E2],"tree_param":{"num_deleted":"0","num_feature":"69","num_nodes":"15","size_leaf_vector":"1"}},{"base_weights":[-3.8974658E-1,-4.2084876E-1,-3.1165195E-1,-3.7138298E-1,-4.542564E-1,-3.5323954E-1,-2.3096287E-1,-1.098751E-2,-1.2384591E-2,-1.3897059E-2,-1.2384591E-2,-8.763036E-3,-1.098751E-2,-8.686363E-3,-2.93279E-3],"categories":[],"categories_nodes":[],"categories_segments":[],"categories_sizes":[],"default_left":[0,0,0,0,0,0,0,0,0,0,0,0,0,0,0],"id":66,"left_children":[1,3,5,7,9,11,13,-1,-1,-1,-1,-1,-1,-1,-1],"loss_changes":[3.9203613E1,1.885205E1,1.5397644E1,4.367859E0,3.1707764E0,6.378601E0,1.2305664E1,0E0,0E0,0E0,0E0,0E0,0E0,0E0,0E0],"parents":[2147483647,0,0,1,1,2,2,3,3,4,4,5,5,6,6],"right_children":[2,4,6,8,10,12,14,-1,-1,-1,-1,-1,-1,-1,-1],"split_conditions":[3.478474E0,1.1367126E0,1.5756723E0,1E0,1.0185431E-1,6.388219E-1,1.4188537E-1,0E0,0E0,0E0,0E0,0E0,0E0,0E0,0E0],"split_indices":[40,16,15,2,45,16,35,0,0,0,0,0,0,0,0],"split_type":[0,0,0,0,0,0,0,0,0,0,0,0,0,0,0],"sum_hessian":[1.6256E4,1.1615E4,4.641E3,4.698E3,6.917E3,3.054E3,1.587E3,2.716E3,1.982E3,6.05E3,8.67E2,5.06E2,2.548E3,1.098E3,4.89E2],"tree_param":{"num_deleted":"0","num_feature":"69","num_nodes":"15","size_leaf_vector":"1"}},{"base_weights":[-3.894607E-1,-4.1079238E-1,-2.8380847E-1,-3.5154992E-1,-4.4516128E-1,-3.473004E-1,-1.7764379E-1,-1.0419012E-2,-1.1950668E-2,-1.3773403E-2,-1.2188323E-2,-7.874163E-3,-1.0419012E-2,-6.255252E-3,1.5234374E-3],"categories":[],"categories_nodes":[],"categories_segments":[],"categories_sizes":[],"default_left":[0,0,0,0,0,0,0,0,0,0,0,0,0,0,0],"id":67,"left_children":[1,3,5,7,9,11,13,-1,-1,-1,-1,-1,-1,-1,-1],"loss_changes":[3.6291504E1,2.7143799E1,1.9651657E1,7.7111816E0,4.239258E0,4.385315E0,7.7818527E0,0E0,0E0,0E0,0E0,0E0,0E0,0E0,0E0],"parents":[2147483647,0,0,1,1,2,2,3,3,4,4,5,5,6,6],"right_children":[2,4,6,8,10,12,14,-1,-1,-1,-1,-1,-1,-1,-1],"split_conditions":[2.5012156E-1,1.0814334E0,1.4591407E0,1E0,6.494185E-2,5.71453E-1,2.4123058E-1,0E0,0E0,0E0,0E0,0E0,0E0,0E0,2.3138387E-2],"split_indices":[20,16,15,2,45,10,53,0,0,0,0,0,0,0,0],"split_type":[0,0,0,0,0,0,0,0,0,0,0,0,0,0,0],"sum_hessian":[1.6223E4,1.3489E4,2.734E3,4.966E3,8.523E3,1.658E3,1.076E3,2.815E3,2.151E3,6.247E3,2.276E3,2.17E2,1.441E3,9.5E2,1.26E2],"tree_param":{"num_deleted":"0","num_feature":"69","num_nodes":"15","size_leaf_vector":"1"}},{"base_weights":[-3.9019862E-1,-4.206795E-1,-3.208729E-1,-3.707762E-1,-4.5257434E-1,-3.3815613E-1,-1.6227181E-1,-1.2350258E-2,-1.1123286E-2,-1.3860406E-2,-1.2350258E-2,-8.959525E-3,-1.1123286E-2,2.0547945E-3,-6.078199E-3],"categories":[],"categories_nodes":[],"categories_segments":[],"categories_sizes":[],"default_left":[0,0,0,0,0,0,0,0,0,0,0,0,0,0,0],"id":68,"left_children":[1,3,5,7,9,11,13,-1,-1,-1,-1,-1,-1,-1,-1],"loss_changes":[3.3860596E1,2.043335E1,1.3385498E1,2.2160034E0,2.4953613E0,7.6661377E0,4.7924166E0,0E0,0E0,0E0,0E0,0E0,0E0,0E0,0E0],"parents":[2147483647,0,0,1,1,2,2,3,3,4,4,5,5,6,6],"right_children":[2,4,6,8,10,12,14,-1,-1,-1,-1,-1,-1,-1,-1],"split_conditions":[3.4990413E0,1.0710554E0,2.0972311E-1,1.1023966E0,1.0856735E-1,1.272674E0,3.3333334E-1,0E0,0E0,0E0,0E0,0E0,0E0,2.9651068E-2,0E0],"split_indices":[22,16,53,22,38,16,55,0,0,0,0,0,0,0,0],"split_type":[0,0,0,0,0,0,0,0,0,0,0,0,0,0,0],"sum_hessian":[1.6159E4,1.1212E4,4.947E3,3.95E3,7.262E3,4.456E3,4.91E2,1.326E3,2.624E3,5.908E3,1.354E3,2.444E3,2.012E3,7.1E1,4.2E2],"tree_param":{"num_deleted":"0","num_feature":"69","num_nodes":"15","size_leaf_vector":"1"}},{"base_weights":[-3.9040884E-1,-4.1055527E-1,-2.7648738E-1,-3.6015198E-1,-4.496908E-1,-3.1639427E-1,-1.1746988E-1,-1.2147641E-2,-1.0305639E-2,-1.3955763E-2,-1.2208134E-2,-6.507962E-3,-1.0076792E-2,-5.6249998E-3,1.8214285E-3],"categories":[],"categories_nodes":[],"categories_segments":[],"categories_sizes":[],"default_left":[0,0,0,0,0,0,0,0,0,0,0,0,0,0,0],"id":69,"left_children":[1,3,5,7,9,11,13,-1,-1,-1,-1,-1,-1,-1,-1],"loss_changes":[3.7055664E1,2.691748E1,1.543895E1,8.499268E0,4.7521973E0,5.434143E0,6.4310784E0,0E0,0E0,0E0,0E0,0E0,0E0,0E0,0E0],"parents":[2147483647,0,0,1,1,2,2,3,3,4,4,5,5,6,6],"right_children":[2,4,6,8,10,12,14,-1,-1,-1,-1,-1,-1,-1,-1],"split_conditions":[2.555863E-1,1.1803509E0,1.8709282E0,1.3423562E0,1.134902E-1,1.4285715E-1,1.8825498E-1,0E0,0E0,0E0,0E0,0E0,0E0,0E0,2.4107294E-2],"split_indices":[38,16,15,44,38,55,53,0,0,0,0,0,0,0,0],"split_type":[0,0,0,0,0,0,0,0,0,0,0,0,0,0,0],"sum_hessian":[1.6263E4,1.3811E4,2.452E3,6.051E3,7.76E3,1.956E3,4.96E2,2.12E3,3.931E3,5.672E3,2.088E3,2E2,1.756E3,3.58E2,1.38E2],"tree_param":{"num_deleted":"0","num_feature":"69","num_nodes":"15","size_leaf_vector":"1"}},{"base_weights":[-3.900777E-1,-4.17542E-1,-3.0127537E-1,-3.6049327E-1,-4.5042747E-1,-3.5526967E-1,-2.4081185E-1,-1.216381E-2,-1.078226E-2,-1.392315E-2,-1.2621805E-2,-8.941222E-3,-1.078226E-2,-8.1448415E-3,-2.683706E-3],"categories":[],"categories_nodes":[],"categories_segments":[],"categories_sizes":[],"default_left":[0,0,0,0,0,0,0,0,0,0,0,0,0,0,0],"id":70,"left_children":[1,3,5,7,9,11,13,-1,-1,-1,-1,-1,-1,-1,-1],"loss_changes":[3.9266846E1,2.2881592E1,1.236853E1,4.370117E0,2.784912E0,3.8060455E0,8.357109E0,0E0,0E0,0E0,0E0,0E0,0E0,0E0,0E0],"parents":[2147483647,0,0,1,1,2,2,3,3,4,4,5,5,6,6],"right_children":[2,4,6,8,10,12,14,-1,-1,-1,-1,-1,-1,-1,-1],"split_conditions":[3.8857617E0,1.0814334E0,1.3237957E0,1.3423562E0,3.4134682E-2,4.464919E-1,1E0,0E0,0E0,0E0,0E0,0E0,0E0,0E0,0E0],"split_indices":[40,16,15,44,33,16,3,0,0,0,0,0,0,0,0],"split_type":[0,0,0,0,0,0,0,0,0,0,0,0,0,0,0],"sum_hessian":[1.6214E4,1.2374E4,3.84E3,4.539E3,7.835E3,2.019E3,1.821E3,1.804E3,2.735E3,5.333E3,2.502E3,3.17E2,1.702E3,1.51E3,3.11E2],"tree_param":{"num_deleted":"0","num_feature":"69","num_nodes":"15","size_leaf_vector":"1"}},{"base_weights":[-3.8905662E-1,-4.1937542E-1,-3.0922082E-1,-3.642981E-1,-4.5097908E-1,-3.6126316E-1,-2.5E-1,-1.0928943E-2,-1.2229158E-2,-1.3833879E-2,-1.2229158E-2,-9.168947E-3,-1.0928943E-2,-8.455923E-3,-2.2018347E-3],"categories":[],"categories_nodes":[],"categories_segments":[],"categories_sizes":[],"default_left":[0,0,0,0,0,0,0,0,0,0,0,0,0,0,0],"id":71,"left_children":[1,3,5,7,9,11,13,-1,-1,-1,-1,-1,-1,-1,-1],"loss_changes":[3.8999023E1,2.0137451E1,1.3619995E1,4.2094727E0,3.1547852E0,4.6524353E0,1.1737534E1,0E0,0E0,0E0,0E0,0E0,0E0,0E0,0E0],"parents":[2147483647,0,0,1,1,2,2,3,3,4,4,5,5,6,6],"right_children":[2,4,6,8,10,12,14,-1,-1,-1,-1,-1,-1,-1,-1],"split_conditions":[3.5571322E0,1.0814334E0,1.3197379E0,1E0,5.751804E-2,6.278016E-1,1E0,0E0,0E0,0E0,0E0,0E0,0E0,0E0,0E0],"split_indices":[40,16,15,2,33,16,3,0,0,0,0,0,0,0,0],"split_type":[0,0,0,0,0,0,0,0,0,0,0,0,0,0,0],"sum_hessian":[1.6227E4,1.175E4,4.477E3,4.296E3,7.454E3,2.373E3,2.104E3,2.486E3,1.81E3,6.108E3,1.346E3,4.52E2,1.921E3,1.779E3,3.25E2],"tree_param":{"num_deleted":"0","num_feature":"69","num_nodes":"15","size_leaf_vector":"1"}},{"base_weights":[-3.8897458E-1,-4.200468E-1,-3.119649E-1,-3.67178E-1,-4.4907844E-1,-3.3028626E-1,-1.6247582E-1,-1.22438455E-2,-1.0980175E-2,-1.4218966E-2,-1.2985667E-2,-8.697757E-3,-1.0980175E-2,-6.5055247E-3,-9.55414E-4],"categories":[],"categories_nodes":[],"categories_segments":[],"categories_sizes":[],"default_left":[0,0,0,0,0,0,0,0,0,0,0,0,0,0,0],"id":72,"left_children":[1,3,5,7,9,11,13,-1,-1,-1,-1,-1,-1,-1,-1],"loss_changes":[3.849878E1,1.7367432E1,1.2623016E1,3.7368774E0,2.5949707E0,7.5445557E0,3.6202793E0,0E0,0E0,0E0,0E0,0E0,0E0,0E0,0E0],"parents":[2147483647,0,0,1,1,2,2,3,3,4,4,5,5,6,6],"right_children":[2,4,6,8,10,12,14,-1,-1,-1,-1,-1,-1,-1,-1],"split_conditions":[3.4516873E0,1.0745655E0,2.0972311E-1,4.4E1,6.191856E-3,1.2636193E0,1.9062895E0,0E0,0E0,0E0,0E0,0E0,0E0,0E0,-7.1944244E-4],"split_indices":[40,16,53,7,33,16,29,0,0,0,0,0,0,0,0],"split_type":[0,0,0,0,0,0,0,0,0,0,0,0,0,0,0],"sum_hessian":[1.6206E4,1.1536E4,4.67E3,4.105E3,7.431E3,4.155E3,5.15E2,1.801E3,2.304E3,2.898E3,4.533E3,2.271E3,1.884E3,3.6E2,1.55E2],"tree_param":{"num_deleted":"0","num_feature":"69","num_nodes":"15","size_leaf_vector":"1"}},{"base_weights":[-3.8920295E-1,-4.0925437E-1,-2.7820462E-1,-4.363665E-1,-3.4688705E-1,-3.3378106E-1,-1.9320486E-1,-1.3589991E-2,-1.1855014E-2,-1.1748803E-2,-1.0311885E-2,-7.904789E-3,-1.0311885E-2,-6.6628307E-3,5.042017E-4],"categories":[],"categories_nodes":[],"categories_segments":[],"categories_sizes":[],"default_left":[0,0,0,0,0,0,0,0,0,0,0,0,0,0,0],"id":73,"left_children":[1,3,5,7,9,11,13,-1,-1,-1,-1,-1,-1,-1,-1],"loss_changes":[3.555371E1,2.271997E1,1.1538712E1,6.1290283E0,4.5200806E0,3.5852203E0,6.137993E0,0E0,0E0,0E0,0E0,0E0,0E0,0E0,0E0],"parents":[2147483647,0,0,1,1,2,2,3,3,4,4,5,5,6,6],"right_children":[2,4,6,8,10,12,14,-1,-1,-1,-1,-1,-1,-1,-1],"split_conditions":[2.555863E-1,3.3809572E-1,1.4591407E0,1.0729332E-1,1.3423562E0,6.25E-1,2.4123058E-1,0E0,0E0,0E0,0E0,0E0,0E0,0E0,1.8731121E-2],"split_indices":[38,17,15,38,44,55,53,0,0,0,0,0,0,0,0],"split_type":[0,0,0,0,0,0,0,0,0,0,0,0,0,0,0],"sum_hessian":[1.6095E4,1.3624E4,2.471E3,9.482E3,4.142E3,1.487E3,9.84E2,6.732E3,2.75E3,1.465E3,2.677E3,2.39E2,1.248E3,8.67E2,1.17E2],"tree_param":{"num_deleted":"0","num_feature":"69","num_nodes":"15","size_leaf_vector":"1"}},{"base_weights":[-3.903852E-1,-4.1653284E-1,-3.0373707E-1,-3.616975E-1,-4.4841623E-1,-3.364025E-1,-1.6689374E-1,-1.0804049E-2,-1.2151706E-2,-1.3827626E-2,-1.2151706E-2,-1.06824245E-2,-7.5494437E-3,-7.5494437E-3,-1.9927537E-3],"categories":[],"categories_nodes":[],"categories_segments":[],"categories_sizes":[],"default_left":[0,0,0,0,0,0,0,0,0,0,0,0,0,0,0],"id":74,"left_children":[1,3,5,7,9,11,13,-1,-1,-1,-1,-1,-1,-1,-1],"loss_changes":[3.647705E1,2.1437988E1,1.670108E1,5.5250244E0,3.951538E0,6.6555176E0,8.703661E0,0E0,0E0,0E0,0E0,0E0,0E0,0E0,0E0],"parents":[2147483647,0,0,1,1,2,2,3,3,4,4,5,5,6,6],"right_children":[2,4,6,8,10,12,14,-1,-1,-1,-1,-1,-1,-1,-1],"split_conditions":[3.8857617E0,1.0814334E0,1.8709282E0,1E0,6.107166E-2,2.0972311E-1,9.357193E-2,0E0,0E0,0E0,0E0,0E0,0E0,0E0,0E0],"split_indices":[40,16,15,2,36,53,33,0,0,0,0,0,0,0,0],"split_type":[0,0,0,0,0,0,0,0,0,0,0,0,0,0,0],"sum_hessian":[1.6223E4,1.2452E4,3.771E3,4.593E3,7.859E3,3.039E3,7.32E2,2.64E3,1.953E3,6.101E3,1.758E3,2.621E3,4.18E2,3.2E2,4.12E2],"tree_param":{"num_deleted":"0","num_feature":"69","num_nodes":"15","size_leaf_vector":"1"}},{"base_weights":[-3.8920018E-1,-4.2155918E-1,-3.121105E-1,-3.7066284E-1,-4.5070326E-1,-3.622839E-1,-2.5805068E-1,-1.1005045E-2,-1.2320491E-2,-1.4283946E-2,-1.3024176E-2,-9.305018E-3,-1.1005045E-2,-8.42417E-3,-1.0859729E-3],"categories":[],"categories_nodes":[],"categories_segments":[],"categories_sizes":[],"default_left":[0,0,0,0,0,0,0,0,0,0,0,0,0,0,0],"id":75,"left_children":[1,3,5,7,9,11,13,-1,-1,-1,-1,-1,-1,-1,-1],"loss_changes":[4.022876E1,1.6607666E1,1.2868408E1,4.187744E0,2.64563E0,5.4970093E0,1.1637466E1,0E0,0E0,0E0,0E0,0E0,0E0,0E0,0E0],"parents":[2147483647,0,0,1,1,2,2,3,3,4,4,5,5,6,6],"right_children":[2,4,6,8,10,12,14,-1,-1,-1,-1,-1,-1,-1,-1],"split_conditions":[3.4011676E0,1.0814334E0,1.299122E0,1E0,7.617749E-3,9.1656566E-1,2.2400871E-1,0E0,0E0,0E0,0E0,0E0,0E0,0E0,0E0],"split_indices":[40,16,15,2,18,16,35,0,0,0,0,0,0,0,0],"split_type":[0,0,0,0,0,0,0,0,0,0,0,0,0,0,0],"sum_hessian":[1.6239E4,1.1427E4,4.812E3,4.177E3,7.25E3,2.485E3,2.327E3,2.412E3,1.765E3,2.826E3,4.424E3,7.64E2,1.721E3,2.108E3,2.19E2],"tree_param":{"num_deleted":"0","num_feature":"69","num_nodes":"15","size_leaf_vector":"1"}},{"base_weights":[-3.89602E-1,-4.197568E-1,-3.1473976E-1,-3.672483E-1,-4.5224145E-1,-3.3345306E-1,-1.6050583E-1,-1.1017448E-2,-1.2292345E-2,-1.435168E-2,-1.3099913E-2,-1.1017448E-2,-8.711708E-3,-7.2272723E-3,-4.032258E-4],"categories":[],"categories_nodes":[],"categories_segments":[],"categories_sizes":[],"default_left":[0,0,0,0,0,0,0,0,0,0,0,0,0,0,0],"id":76,"left_children":[1,3,5,7,9,11,13,-1,-1,-1,-1,-1,-1,-1,-1],"loss_changes":[3.6469482E1,2.0806519E1,1.3355896E1,4.8809814E0,2.5769043E0,8.994476E0,6.037986E0,0E0,0E0,0E0,0E0,0E0,0E0,0E0,0E0],"parents":[2147483647,0,0,1,1,2,2,3,3,4,4,5,5,6,6],"right_children":[2,4,6,8,10,12,14,-1,-1,-1,-1,-1,-1,-1,-1],"split_conditions":[3.478474E0,1.0814334E0,2.0972311E-1,1E0,1.0464201E0,1.2027148E0,1.4591407E0,0E0,0E0,0E0,0E0,0E0,0E0,0E0,0E0],"split_indices":[40,16,53,2,15,15,15,0,0,0,0,0,0,0,0],"split_type":[0,0,0,0,0,0,0,0,0,0,0,0,0,0,0],"sum_hessian":[1.628E4,1.1594E4,4.686E3,4.257E3,7.337E3,4.174E3,5.12E2,2.442E3,1.815E3,2.705E3,4.632E3,1.793E3,2.381E3,3.28E2,1.84E2],"tree_param":{"num_deleted":"0","num_feature":"69","num_nodes":"15","size_leaf_vector":"1"}},{"base_weights":[-3.9126137E-1,-4.1692764E-1,-3.0522788E-1,-4.4469488E-1,-3.6107776E-1,-3.2607993E-1,-2.0079365E-1,-1.208659E-2,-1.3565419E-2,-1.208659E-2,-1.0832332E-2,-1.0832332E-2,-9.213303E-3,-7.903104E-3,-2.3788544E-3],"categories":[],"categories_nodes":[],"categories_segments":[],"categories_sizes":[],"default_left":[0,0,0,0,0,0,0,0,0,0,0,0,0,0,0],"id":77,"left_children":[1,3,5,7,9,11,13,-1,-1,-1,-1,-1,-1,-1,-1],"loss_changes":[3.5445557E1,2.1416748E1,7.9499817E0,3.3355713E0,3.7540588E0,2.27005E0,4.964628E0,0E0,0E0,0E0,0E0,0E0,0E0,0E0,0E0],"parents":[2147483647,0,0,1,1,2,2,3,3,4,4,5,5,6,6],"right_children":[2,4,6,8,10,12,14,-1,-1,-1,-1,-1,-1,-1,-1],"split_conditions":[1.9860984E-1,3.3809572E-1,4.6922475E-1,5.565726E-1,8.065102E-1,3.8857617E0,1E0,0E0,0E0,0E0,0E0,0E0,0E0,0E0,0E0],"split_indices":[20,17,38,10,42,40,5,0,0,0,0,0,0,0,0],"split_type":[0,0,0,0,0,0,0,0,0,0,0,0,0,0,0],"sum_hessian":[1.6179E4,1.2451E4,3.728E3,8.65E3,3.801E3,3.1E3,6.28E2,9.25E2,7.725E3,1.464E3,2.337E3,9.22E2,2.178E3,4.03E2,2.25E2],"tree_param":{"num_deleted":"0","num_feature":"69","num_nodes":"15","size_leaf_vector":"1"}},{"base_weights":[-3.883777E-1,-4.1522896E-1,-3.0018464E-1,-3.577068E-1,-4.459903E-1,-3.5136303E-1,-2.1963562E-1,-1.07312035E-2,-1.2055457E-2,-1.3753364E-2,-1.2125326E-2,-8.56498E-3,-1.07312035E-2,-7.923801E-3,-1.5664556E-3],"categories":[],"categories_nodes":[],"categories_segments":[],"categories_sizes":[],"default_left":[0,0,0,0,0,0,0,0,0,0,0,0,0,0,0],"id":78,"left_children":[1,3,5,7,9,11,13,-1,-1,-1,-1,-1,-1,-1,-1],"loss_changes":[3.806714E1,2.2876709E1,1.5458832E1,5.442993E0,3.901001E0,4.6641846E0,1.0949959E1,0E0,0E0,0E0,0E0,0E0,0E0,0E0,0E0],"parents":[2147483647,0,0,1,1,2,2,3,3,4,4,5,5,6,6],"right_children":[2,4,6,8,10,12,14,-1,-1,-1,-1,-1,-1,-1,-1],"split_conditions":[3.8857617E0,1.0448062E0,1.4591407E0,1E0,1.0729332E-1,5.200398E-1,1.8076238E-1,0E0,0E0,0E0,0E0,0E0,0E0,0E0,0E0],"split_indices":[40,16,15,2,38,16,53,0,0,0,0,0,0,0,0],"split_type":[0,0,0,0,0,0,0,0,0,0,0,0,0,0,0],"sum_hessian":[1.6191E4,1.2402E4,3.789E3,4.174E3,8.228E3,2.309E3,1.48E3,2.408E3,1.766E3,6.315E3,1.913E3,3.53E2,1.956E3,1.166E3,3.14E2],"tree_param":{"num_deleted":"0","num_feature":"69","num_nodes":"15","size_leaf_vector":"1"}},{"base_weights":[-3.8853997E-1,-4.1570804E-1,-2.9852942E-1,-3.5711873E-1,-4.4950974E-1,-3.4878588E-1,-2.2071767E-1,-1.2099427E-2,-1.0713561E-2,-1.3803266E-2,-1.2099427E-2,-8.542553E-3,-1.0713561E-2,-7.7195116E-3,-1.0843372E-3],"categories":[],"categories_nodes":[],"categories_segments":[],"categories_sizes":[],"default_left":[0,0,0,0,0,0,0,0,0,0,0,0,0,0,0],"id":79,"left_children":[1,3,5,7,9,11,13,-1,-1,-1,-1,-1,-1,-1,-1],"loss_changes":[3.9047363E1,2.4439697E1,1.4457672E1,4.5925293E0,3.6674805E0,5.434723E0,9.884941E0,0E0,0E0,0E0,0E0,0E0,0E0,0E0,0E0],"parents":[2147483647,0,0,1,1,2,2,3,3,4,4,5,5,6,6],"right_children":[2,4,6,8,10,12,14,-1,-1,-1,-1,-1,-1,-1,-1],"split_conditions":[3.8857617E0,1.0814334E0,1.4504151E0,4.2E1,1.8867625E0,4.5970306E-1,1E0,0E0,0E0,0E0,0E0,0E0,0E0,0E0,0E0],"split_indices":[40,16,15,7,30,16,3,0,0,0,0,0,0,0,0],"split_type":[0,0,0,0,0,0,0,0,0,0,0,0,0,0,0],"sum_hessian":[1.608E4,1.2342E4,3.738E3,4.491E3,7.851E3,2.263E3,1.475E3,1.897E3,2.594E3,6.428E3,1.423E3,3.2E2,1.943E3,1.228E3,2.47E2],"tree_param":{"num_deleted":"0","num_feature":"69","num_nodes":"15","size_leaf_vector":"1"}},{"base_weights":[-3.8986123E-1,-4.205261E-1,-3.1379238E-1,-3.6909822E-1,-4.4993886E-1,-3.5283083E-1,-2.4815446E-1,-1.1014777E-2,-1.2285556E-2,-1.3843519E-2,-1.2294787E-2,-9.014779E-3,-1.1014777E-2,-8.50235E-3,-1.5875913E-3],"categories":[],"categories_nodes":[],"categories_segments":[],"categories_sizes":[],"default_left":[0,0,0,0,0,0,0,0,0,0,0,0,0,0,0],"id":80,"left_children":[1,3,5,7,9,11,13,-1,-1,-1,-1,-1,-1,-1,-1],"loss_changes":[3.7697998E1,1.7195557E1,1.1831848E1,4.32312E0,3.0065918E0,5.6639404E0,1.2011742E1,0E0,0E0,0E0,0E0,0E0,0E0,0E0,0E0],"parents":[2147483647,0,0,1,1,2,2,3,3,4,4,5,5,6,6],"right_children":[2,4,6,8,10,12,14,-1,-1,-1,-1,-1,-1,-1,-1],"split_conditions":[3.478474E0,1.0814334E0,1.4807322E0,1E0,4.488358E-2,1.0979328E0,1E0,0E0,0E0,0E0,0E0,0E0,0E0,0E0,0E0],"split_indices":[40,16,15,2,33,16,3,0,0,0,0,0,0,0,0],"split_type":[0,0,0,0,0,0,0,0,0,0,0,0,0,0,0],"sum_hessian":[1.6282E4,1.1593E4,4.689E3,4.234E3,7.359E3,2.93E3,1.759E3,2.459E3,1.775E3,5.692E3,1.667E3,1.166E3,1.764E3,1.487E3,2.72E2],"tree_param":{"num_deleted":"0","num_feature":"69","num_nodes":"15","size_leaf_vector":"1"}},{"base_weights":[-3.9014006E-1,-4.2103243E-1,-3.0920026E-1,-3.6535323E-1,-4.5297995E-1,-3.6492693E-1,-2.4499045E-1,-1.0953491E-2,-1.2274997E-2,-1.3801339E-2,-1.2274997E-2,-9.148761E-3,-1.0953491E-2,-8.319185E-3,-2.0845921E-3],"categories":[],"categories_nodes":[],"categories_segments":[],"categories_sizes":[],"default_left":[0,0,0,0,0,0,0,0,0,0,0,0,0,0,0],"id":81,"left_children":[1,3,5,7,9,11,13,-1,-1,-1,-1,-1,-1,-1,-1],"loss_changes":[4.023877E1,2.0505371E1,1.5879486E1,4.7730103E0,2.798706E0,4.3367615E0,1.177742E1,0E0,0E0,0E0,0E0,0E0,0E0,0E0,0E0],"parents":[2147483647,0,0,1,1,2,2,3,3,4,4,5,5,6,6],"right_children":[2,4,6,8,10,12,14,-1,-1,-1,-1,-1,-1,-1,-1],"split_conditions":[3.5285635E0,1.0814334E0,1.3197379E0,1E0,1E0,7.4974036E-1,1E0,0E0,0E0,0E0,0E0,0E0,0E0,0E0,0E0],"split_indices":[40,16,15,2,3,16,3,0,0,0,0,0,0,0,0],"split_type":[0,0,0,0,0,0,0,0,0,0,0,0,0,0,0],"sum_hessian":[1.6205E4,1.1718E4,4.487E3,4.287E3,7.431E3,2.393E3,2.094E3,2.453E3,1.834E3,6.718E3,7.13E2,5.42E2,1.851E3,1.765E3,3.29E2],"tree_param":{"num_deleted":"0","num_feature":"69","num_nodes":"15","size_leaf_vector":"1"}},{"base_weights":[-3.8838488E-1,-4.1513523E-1,-2.9901177E-1,-4.4129485E-1,-3.570735E-1,-3.4345794E-1,-2.2306034E-1,-1.3575565E-2,-1.1975525E-2,-1.07122045E-2,-1.1975525E-2,-8.497775E-3,-1.07122045E-2,-8.497775E-3,-2.9826255E-3],"categories":[],"categories_nodes":[],"categories_segments":[],"categories_sizes":[],"default_left":[0,0,0,0,0,0,0,0,0,0,0,0,0,0,0],"id":82,"left_children":[1,3,5,7,9,11,13,-1,-1,-1,-1,-1,-1,-1,-1],"loss_changes":[3.8458008E1,1.94458E1,1.2469849E1,5.390259E0,4.816162E0,4.021942E0,1.2178032E1,0E0,0E0,0E0,0E0,0E0,0E0,0E0,0E0],"parents":[2147483647,0,0,1,1,2,2,3,3,4,4,5,5,6,6],"right_children":[2,4,6,8,10,12,14,-1,-1,-1,-1,-1,-1,-1,-1],"split_conditions":[3.8857617E0,3.3809572E-1,1.4964812E0,6.584404E-2,1E0,1.59202E3,1.364702E-1,0E0,0E0,0E0,0E0,0E0,0E0,0E0,0E0],"split_indices":[40,17,15,51,2,12,53,0,0,0,0,0,0,0,0],"split_type":[0,0,0,0,0,0,0,0,0,0,0,0,0,0,0],"sum_hessian":[1.6201E4,1.2459E4,3.742E3,8.694E3,3.765E3,2.352E3,1.39E3,7.422E3,1.272E3,2.157E3,1.608E3,3.27E2,2.025E3,8.74E2,5.16E2],"tree_param":{"num_deleted":"0","num_feature":"69","num_nodes":"15","size_leaf_vector":"1"}},{"base_weights":[-3.8923484E-1,-4.1979283E-1,-3.1477177E-1,-4.4280753E-1,-3.672823E-1,-3.635103E-1,-2.5859728E-1,-1.3651104E-2,-1.21513475E-2,-1.1018469E-2,-1.21513475E-2,-9.331614E-3,-1.1018469E-2,-8.382353E-3,-1.5291262E-3],"categories":[],"categories_nodes":[],"categories_segments":[],"categories_sizes":[],"default_left":[0,0,0,0,0,0,0,0,0,0,0,0,0,0,0],"id":83,"left_children":[1,3,5,7,9,11,13,-1,-1,-1,-1,-1,-1,-1,-1],"loss_changes":[3.6619385E1,1.5697266E1,1.2763824E1,4.425171E0,4.0415955E0,4.8919067E0,9.428925E0,0E0,0E0,0E0,0E0,0E0,0E0,0E0,0E0],"parents":[2147483647,0,0,1,1,2,2,3,3,4,4,5,5,6,6],"right_children":[2,4,6,8,10,12,14,-1,-1,-1,-1,-1,-1,-1,-1],"split_conditions":[3.4516873E0,3.5026193E-1,1.3197379E0,7.069263E-2,1E0,1.59202E3,2.2400871E-1,0E0,0E0,0E0,0E0,0E0,0E0,0E0,0E0],"split_indices":[40,17,15,45,2,12,35,0,0,0,0,0,0,0,0],"split_type":[0,0,0,0,0,0,0,0,0,0,0,0,0,0,0],"sum_hessian":[1.6217E4,1.1487E4,4.73E3,8.347E3,3.14E3,2.522E3,2.208E3,6.659E3,1.688E3,1.806E3,1.334E3,4.01E2,2.121E3,2.004E3,2.04E2],"tree_param":{"num_deleted":"0","num_feature":"69","num_nodes":"15","size_leaf_vector":"1"}},{"base_weights":[-3.9054188E-1,-4.188551E-1,-3.0680987E-1,-3.6810777E-1,-4.520247E-1,-3.5525173E-1,-2.4401115E-1,-1.0884974E-2,-1.2301987E-2,-1.3970968E-2,-1.2357636E-2,-8.988943E-3,-1.0884974E-2,-8.0804955E-3,-4.1208792E-4],"categories":[],"categories_nodes":[],"categories_segments":[],"categories_sizes":[],"default_left":[0,0,0,0,0,0,0,0,0,0,0,0,0,0,0],"id":84,"left_children":[1,3,5,7,9,11,13,-1,-1,-1,-1,-1,-1,-1,-1],"loss_changes":[3.804077E1,1.997705E1,1.2282898E1,5.3377686E0,3.5983887E0,3.740387E0,1.0363731E1,0E0,0E0,0E0,0E0,0E0,0E0,0E0,0E0],"parents":[2147483647,0,0,1,1,2,2,3,3,4,4,5,5,6,6],"right_children":[2,4,6,8,10,12,14,-1,-1,-1,-1,-1,-1,-1,-1],"split_conditions":[3.7053218E0,1.1245E0,1.373877E0,1E0,9.603531E-2,1.6691E3,1E0,0E0,0E0,0E0,0E0,0E0,0E0,0E0,0E0],"split_indices":[40,16,15,2,38,12,5,0,0,0,0,0,0,0,0],"split_type":[0,0,0,0,0,0,0,0,0,0,0,0,0,0,0],"sum_hessian":[1.6164E4,1.2069E4,4.095E3,4.786E3,7.283E3,2.302E3,1.793E3,2.747E3,2.039E3,5.406E3,1.877E3,3.97E2,1.905E3,1.613E3,1.8E2],"tree_param":{"num_deleted":"0","num_feature":"69","num_nodes":"15","size_leaf_vector":"1"}},{"base_weights":[-3.900406E-1,-4.116923E-1,-2.8799018E-1,-3.526967E-1,-4.4588056E-1,-3.4225875E-1,-1.8158436E-1,-1.0495237E-2,-1.1978659E-2,-1.3659772E-2,-1.1978659E-2,-7.857647E-3,-1.0495237E-2,-6.357955E-3,3.0319148E-3],"categories":[],"categories_nodes":[],"categories_segments":[],"categories_sizes":[],"default_left":[0,0,0,0,0,0,0,0,0,0,0,0,0,0,0],"id":85,"left_children":[1,3,5,7,9,11,13,-1,-1,-1,-1,-1,-1,-1,-1],"loss_changes":[3.5641113E1,2.6704346E1,1.6341568E1,7.15979E0,4.5303955E0,5.279114E0,8.567165E0,0E0,0E0,0E0,0E0,0E0,0E0,0E0,0E0],"parents":[2147483647,0,0,1,1,2,2,3,3,4,4,5,5,6,6],"right_children":[2,4,6,8,10,12,14,-1,-1,-1,-1,-1,-1,-1,-1],"split_conditions":[2.434867E-1,1.0814334E0,1.5756723E0,1E0,1.1242436E0,6.25E-1,5.186742E-1,0E0,0E0,0E0,0E0,0E0,0E0,0E0,2.5673911E-2],"split_indices":[20,16,15,2,31,55,18,0,0,0,0,0,0,0,0],"split_type":[0,0,0,0,0,0,0,0,0,0,0,0,0,0,0],"sum_hessian":[1.6254E4,1.34E4,2.854E3,4.93E3,8.47E3,